{
    "bias": -1.5939999999999352,
    "weights": [
        0.0633554980928662,
        0.04440856538040669,
        0.027278395720371825,
        0.02738804062080327,
        0.045339025114809584,
        0.01690449154090284,
        -0.011792965358386545,
        0.010366669097694363,
        0.00848251418260172,
        -0.018862780956465847,
        0.014241272531589967,
        -0.005370848392831278,
        -0.020937192605704254,
        -0.015374783145196896,
        -0.012743556461179417,
        0.0005560238341399649,
        -0.02582258529222046,
        -0.027648691916482025,
        -0.014206988653743795,
        0.0015313174870052544,
        -0.010592277401260763,
        -0.008686595273511023,
        0.025620788300472208,
        0.01634393255160991,
        0.011990537409482116,
        -0.011534084488813986,
        -0.02582052983986616,
        -0.010837745939266496,
        -0.001324888071755823,
        -0.004451843046009392,
        -0.0017525913137113299,
        -0.0028845440779368546,
        -0.025473125358974866,
        -0.010809972845682627,
        0.008629102184437333,
        -0.006287870782629333,
        -0.009030646835304372,
        0.015306795062438752,
        -0.005455263789083727,
        0.018109076548327153,
        0.02028658319114343,
        0.026852749331361652,
        0.023451023655181296,
        0.029544992591817996,
        0.012646817482224277,
        0.01463191547091406,
        0.0760141727569174,
        0.13406099333552243,
        0.06571762475525036,
        0.033893200658818234,
        0.02314823342493922,
        0.018349179656684023,
        0.03796782686647568,
        0.025341259745138713,
        -0.029913467869390645,
        -0.02517802544051977,
        0.0014920803907744517,
        0.0026511480055622567,
        -0.0063544430952045695,
        -0.02215017581780514,
        -0.033775760213074525,
        -0.04648154193543994,
        -0.06337187175403246,
        -0.036406262049083496,
        -0.02237651306679263,
        -0.04138868918431302,
        -0.031029417936453935,
        -0.010654780249953252,
        -0.018811571548183782,
        -0.03357081224326804,
        -0.025928870177991236,
        0.002943240195616344,
        -0.00868650468694148,
        -0.03323388573057424,
        -0.044320533592943856,
        -0.02506852955207271,
        0.005382127011348412,
        0.006680217976395965,
        -0.00541953677503091,
        -0.01916452210868515,
        -0.017965066621448738,
        -0.009689873703596311,
        0.0024877089737732204,
        -0.005520764430870962,
        0.0023459405936014583,
        0.008027102741823054,
        0.015997017446281844,
        -0.00500403608547773,
        -0.0038334273105930087,
        0.011513707743495308,
        0.0077626276015285295,
        0.024950494027470807,
        -0.00012205152030694448,
        0.018671469621730625,
        0.023194926577088878,
        0.10085781471032751,
        0.03923115806333081,
        0.0034072849871110726,
        0.028102114885648715,
        0.040627382404543645,
        0.06772240129080712,
        0.03542751733148199,
        -0.005554935056485646,
        -0.0010245145019022839,
        0.0073144344615313365,
        0.0033330090962427703,
        -0.02251791855937189,
        -0.01601741597383437,
        -0.01967763853862222,
        -0.013605072910066296,
        -0.018349554218040194,
        -0.0010947216091198465,
        -0.0013427682221834284,
        -0.021724794206591718,
        0.008678371781322995,
        0.021574458290383,
        0.020122122620380965,
        0.021366419038753512,
        0.009671180989748313,
        -0.008466072234267864,
        -0.020880229451627052,
        -0.027676064990929245,
        -0.02574169303583572,
        0.0053202349208624185,
        0.020701409310973983,
        0.021575815952080846,
        0.005569812704180034,
        -0.02596367089791674,
        -0.04204381515025051,
        -0.03554171522299344,
        -0.020764360808177174,
        -0.006637176362088807,
        0.019104299465248768,
        0.017755613037180144,
        0.020010191144431914,
        -0.004161784761360491,
        -0.04099654501321166,
        -0.013432277675955498,
        0.008589051316407234,
        0.011137732404177335,
        -0.02984035077621366,
        0.0036046481258317034,
        -0.013243040967617456,
        0.045357806585117184,
        0.015408497925811688,
        -0.01101762791466958,
        -0.004072065164811303,
        0.013752739928789242,
        0.05384001990522324,
        -0.004307240413717677,
        -0.019055097436429524,
        0.008457446051587826,
        0.018437692966586695,
        -0.0058369531201869496,
        -0.011164629339522083,
        -0.0024549211663924073,
        0.015683605714539455,
        0.014087076919159213,
        0.013504511638422161,
        -0.012194085481048934,
        -0.02361001205500746,
        -0.005638516726081609,
        0.0332681940077875,
        0.01385902240833637,
        0.012501425393129335,
        0.024389570799020825,
        0.02082174947493809,
        0.004508106320533031,
        -0.0070034284284213755,
        -0.004444547653316782,
        -0.00948181623703922,
        0.006462884553550698,
        0.010235945414398878,
        0.012147102300893635,
        -0.011559787075814941,
        -0.03588983864703543,
        -0.030889815262822112,
        -0.021337063985893547,
        -0.010233722349108843,
        -0.014592393084201054,
        -0.02174358178143594,
        -0.009629279363125872,
        0.017205247904560288,
        0.019667344185476505,
        -0.013026006025849345,
        -0.005984946744795362,
        0.03249176699653509,
        0.020603284652588445,
        -0.024558004880283413,
        -0.006329061177523436,
        -0.007204939220317054,
        0.015674357782021017,
        0.016507516966389326,
        -0.0049670933831627954,
        -0.012852308144582152,
        -0.011291666841423317,
        0.018627558406585722,
        -0.015989285026568274,
        0.0012608659674206932,
        0.03757076383909637,
        -0.009319445969288118,
        -0.038650088874297876,
        -0.013847530997364991,
        0.027624816875667025,
        0.0192005842189496,
        -0.0006009040570405383,
        0.008396265793490997,
        -0.014817259243569908,
        -0.017955407913348768,
        -0.008621208643107735,
        0.019824680167751508,
        0.004730685320745296,
        0.007003090162346737,
        0.008198472406743354,
        0.005075393049377013,
        0.01183918705124798,
        0.024126950694976855,
        0.011618737873119744,
        0.009614554272188984,
        0.006890488150634305,
        0.03915525917043123,
        0.039203660527110135,
        -0.002721158288677065,
        -0.013504937314594161,
        -0.0030108894345024216,
        0.023403241933667832,
        0.015086685776066904,
        0.008395856640143702,
        -0.014665990403595047,
        -0.012715158518103472,
        0.0013393730573239787,
        0.015241556025798197,
        -0.00530704126091343,
        0.007271208274971444,
        0.05207723687953751,
        0.021676362935600182,
        -0.014562942791659468,
        -0.005057636232511688,
        -0.004056607954807861,
        0.0045785407926361675,
        0.017150406618782345,
        -0.0013751146390446269,
        -0.01642526039044915,
        -0.001358381463479007,
        0.0009956563266186598,
        -0.0008937726115317756,
        0.03184019114626183,
        0.038815246156490846,
        0.0005253821357103831,
        -0.010567484231452968,
        0.00427500493122501,
        0.003198667286792807,
        -0.014811521052481064,
        -0.011156290467523722,
        0.0012955014410394993,
        0.018219183287312306,
        0.0006768326656805822,
        -0.016888916322817717,
        0.00035197363249533405,
        0.030201696277174398,
        0.03672357053590306,
        0.022253202563000094,
        0.023642547820696594,
        0.031156794084800935,
        0.009056053951669899,
        -0.003549770059422593,
        0.007909811635328126,
        0.02154554267370935,
        0.05608037195663713,
        0.050604493374216304,
        -0.0003787557269093823,
        -0.007620223266501605,
        -0.015063784104414637,
        0.004664180122729482,
        0.01645457687875602,
        0.02264471762689793,
        -0.0035960297600687967,
        -0.017890929282599097,
        0.011566952739004118,
        0.014435173828755919,
        -0.025103310704508164,
        0.0032090023784864027,
        0.011343275576644708,
        0.0005287062684489553,
        -0.00789186845588243,
        -0.0038185080768783465,
        -0.011278128407285773,
        0.0116000740171466,
        0.022882179476639685,
        0.009755096719021477,
        -0.020677152310451644,
        -0.011703791297918152,
        -0.007546060321119141,
        0.005914562305836356,
        0.030368799664423456,
        0.028521663797505075,
        0.030524194932356058,
        0.0018545573839358995,
        -0.007749820797412764,
        -0.01741864665519523,
        -0.016371628538608487,
        -0.014189036642824459,
        -0.0008211296439003079,
        0.005592085470802164,
        -0.006212259691588902,
        -0.027820855933360096,
        -0.01024520091396277,
        0.012731309287986138,
        0.01659955867730126,
        0.009624035181618338,
        0.019729312097935527,
        0.024278744472963,
        0.012245166026284436,
        -0.015499823995789015,
        -0.02384537588435256,
        -0.019706435630604036,
        0.02433143054607603,
        0.04160886486269094,
        0.016514954540561386,
        0.006626118643901364,
        -0.008022767780333064,
        -0.02235549755763273,
        0.008237581966765037,
        0.04909083563577982,
        0.0068942680889414205,
        -0.009468928792188622,
        0.024599874526546973,
        0.01200507200964967,
        -0.008907828446470893,
        -0.014743995562492777,
        -0.02164691722986429,
        -0.034904804036500106,
        -0.02150756905406424,
        -0.017022226534982924,
        -0.011635244314842353,
        0.004518085293611831,
        0.05400788909624486,
        0.022056477379395402,
        -0.03932532556031806,
        -0.036087596110643015,
        -0.008529930049435547,
        0.025296057530537853,
        0.03038560476176263,
        0.0172371475346251,
        0.020675671055482136,
        -0.0038382368149721094,
        0.006148177896569775,
        -0.0186566966606769,
        -0.014074077193636986,
        -0.008717633682121858,
        -0.010162692557553785,
        0.015819275013872033,
        -0.0015889625432009317,
        -0.008023945490763029,
        -0.025922231876718486,
        -0.02052598070196877,
        0.008632827475295606,
        0.02919466070295584,
        0.03960366183809571,
        0.039635449467338525,
        0.03017685754216314,
        0.001642786081753147,
        -0.02028467177248464,
        -0.03615278057517662,
        -0.0011698592457124197,
        0.010549168260271835,
        0.011478233761482413,
        0.003106313691739691,
        0.015808247248072692,
        -0.02279132210437059,
        0.010934417885874584,
        0.034871082380505625,
        0.010559232975427072,
        -0.008979360337305889,
        -0.010854058893173322,
        -0.007510082113350291,
        0.02488267516107243,
        -0.03390106538617976,
        -0.03269887077909579,
        -0.047888185260938645,
        -0.018623090455011825,
        -0.023297044526830613,
        -0.019572093821766796,
        -0.004686041392901284,
        0.027385803249154433,
        0.011713494154239964,
        0.0014687128021687904,
        0.013156820850800553,
        0.003286819811145772,
        0.03294607579619131,
        0.00547198586119833,
        -0.0083997445357197,
        -0.010598682983009504,
        -0.016802583608018628,
        0.016238840613400595,
        0.0271720259808743,
        0.02069774675919943,
        0.017917024567394173,
        0.0016312396788931924,
        0.007248988468843461,
        -0.0033749535789720213,
        -0.016618506816326793,
        -0.0037861981955131427,
        0.037934060286879644,
        0.023915773784266202,
        0.029147836982651713,
        0.040886592233604344,
        0.027691072494926656,
        0.01588749209833326,
        0.005300165964045091,
        -0.004141909092262758,
        -0.015889200135600495,
        -0.03992426867967153,
        -0.02205587501321873,
        0.02123014060005587,
        0.018266354600250546,
        0.016842145873613983,
        0.008772528729397822,
        -0.013497376247142237,
        0.0059624776516377905,
        0.02443390262290428,
        -0.01680822620637162,
        -0.0008432440209392506,
        -0.01530820395992353,
        0.0008994980657876066,
        0.028097533759834828,
        -0.026887296828186056,
        -0.04499997639550182,
        -0.005009819981644823,
        0.012979780994677434,
        -0.02172055993816511,
        0.007156878414281866,
        0.005825877337633224,
        -0.006792448865937125,
        0.018720811791622022,
        0.007497652640555351,
        0.007635757710665313,
        0.015115502402747828,
        -0.043594939785410444,
        -0.02928570409443164,
        -0.03352123334667457,
        -0.041295672572459,
        0.015071631106321945,
        0.03969729332992901,
        0.05178840165429673,
        0.05685258018421061,
        0.059514446183777485,
        0.02537498878909474,
        0.05072574811682305,
        0.015361776214346248,
        0.04154769565451386,
        0.05965125503074466,
        0.020762408289169833,
        0.002590029371005637,
        0.011583473581826544,
        0.020227928465124567,
        0.024548449111116987,
        0.0064565774373192475,
        0.00019841415609551092,
        -0.0020309589381003546,
        -0.007622531490794745,
        -0.018871358042677512,
        -0.01833168388396934,
        0.001767983220910218,
        0.019913816965513812,
        0.008553851747616073,
        0.000497946771032723,
        0.018230196416178825,
        0.015397510994968253,
        0.0045132002316617716,
        -0.001519921314709713,
        -0.026244455296599047,
        0.012204380263418135,
        0.005738024475235804,
        -0.03856911273358111,
        -0.06657995540555903,
        -0.029137971023210963,
        0.027413799413758703,
        0.02197034578277432,
        0.018421017537042308,
        -0.014918787623763873,
        -0.015718673740308012,
        0.023889636336989175,
        0.0023186416377602766,
        -0.0005830281602682996,
        -0.001768976012971404,
        -0.050077608883263645,
        0.0012814441197047768,
        -0.0295287023547148,
        -0.03818897579141665,
        -0.022566844278904298,
        -0.038847065144079394,
        -0.012006447628119258,
        -0.006880334476614414,
        -0.02678004911211929,
        -0.015366078048426463,
        -0.004667880501242623,
        -0.0017116065063370346,
        0.040264979985657236,
        0.0631938015988086,
        0.04330106334749401,
        0.027601043095147586,
        0.017436211051870956,
        0.015165366527489408,
        0.03814295434217448,
        0.04022410630269912,
        0.03160626599879124,
        -0.0027462387127952597,
        0.013162615911780657,
        0.01753828998625421,
        0.01633744685478724,
        0.005586291960409229,
        -0.00718286253420449,
        -0.009643305294057878,
        -0.011147799174152213,
        -0.001242336230766256,
        0.017268664794376037,
        0.009335584436894109,
        -0.004631310756005238,
        -0.0047050575774046895,
        0.03241160687555724,
        -0.010081105390000334,
        -0.04202951669528258,
        -0.08327709466689813,
        -0.03797760958849616,
        0.04777753374873376,
        0.03651712420906921,
        -0.004286326313657551,
        -0.018722886901286317,
        -0.03260868704662798,
        -0.006642567745231715,
        -0.021731353720193195,
        -0.012693011403101787,
        -0.01220317791766977,
        -0.02612402904921408,
        0.004924232129690473,
        -0.010155678542512248,
        -0.038828173197744884,
        -0.05714504044271931,
        -0.03421019980132688,
        -0.012103047774970024,
        0.001985295510652959,
        -0.027585666560717915,
        -0.012034517444387412,
        -0.018668323464811995,
        0.007585145157913243,
        0.029670149615285774,
        0.02392885548131628,
        0.008182738448307504,
        0.014604527439644537,
        0.04732578621055459,
        0.03475614718586014,
        0.051516929865056106,
        0.03740946758535156,
        0.017180386523137598,
        0.012776148639603893,
        0.007833404273709026,
        -0.00607905882287113,
        0.014642651439662095,
        0.0186781502678653,
        0.017768417004424077,
        0.004804500181924538,
        -0.010794545194573431,
        -0.02284588465510248,
        -0.01463877260632306,
        -0.03292472958787212,
        -0.03316424884646613,
        -0.0205655587383584,
        -0.004869765568220545,
        -0.012782689221054615,
        -0.021783781339347854,
        -0.05935804808299112,
        -0.0026640882810084004,
        0.05816389144897239,
        0.017693744328457845,
        0.0005180779794204997,
        -0.05243186874828895,
        -0.06791562896432604,
        -0.03665402287365415,
        -0.04509063455562559,
        -0.010713424519602279,
        -0.00481328049888802,
        0.004008502587492432,
        0.01682086183346982,
        -0.007313820564808425,
        0.0021817608426051584,
        0.01639195891912198,
        0.041236934730458294,
        0.009862041036565293,
        0.015922024664216383,
        0.02780802805489794,
        0.01504454314273057,
        0.03635741727861562,
        0.08202452823491369,
        0.0839424890135954,
        0.03439266873618102,
        -0.011282196180378122,
        -0.006574845036411377,
        0.02843773019445046,
        0.021854412951197465,
        0.023301792489464283,
        -0.00011582766319435708,
        -0.013950765742644356,
        0.00588472341970661,
        0.0005020820770896266,
        -0.013543062145270887,
        -0.023220899092033363,
        0.0073920990109553626,
        0.006635149295351027,
        0.01961008179007849,
        -0.005750933799486169,
        -0.014090124113784762,
        -0.028918890582651062,
        -0.034882897100656396,
        -0.031272598044803465,
        -0.03669091132624834,
        0.0033409478752636844,
        -0.009973673796258478,
        -0.014154239918615745,
        -0.008943071885600708,
        0.010577529545139271,
        0.033306365484052164,
        0.015077457930060606,
        0.005718690363671603,
        -0.058657067235775774,
        -0.043334571661555965,
        -0.0025016686855351983,
        -0.019426793784169016,
        -0.024866992414652983,
        -0.03033688558130417,
        0.014509647106667986,
        0.024536333002088524,
        -0.011182251516495914,
        0.013457305944705844,
        0.015720488481988988,
        0.03569897374481139,
        -0.016023415648874304,
        -0.04512213957333162,
        -0.030110901431950454,
        -0.05119356944453432,
        -0.01619476710884391,
        0.02604546554125826,
        0.04190906659327764,
        0.028476590104788844,
        0.01052856916101295,
        0.020111074461349313,
        0.013088538372256011,
        -0.02985579506580256,
        -0.018624905331002497,
        0.0022711897875650256,
        -0.00815432405196554,
        -0.007179998180185638,
        -0.01695508966062878,
        0.010260298065209606,
        0.016450096165163675,
        0.03355077975110334,
        -0.004842113470681146,
        0.01834381351408567,
        -0.008976666302661997,
        -0.005135321576735954,
        -0.02648174990895554,
        -0.0047026341160546934,
        -0.007458993743526952,
        -0.024585511799486072,
        0.027982629670692743,
        -0.013330706622035244,
        -0.02300311290347958,
        0.013406656605573684,
        0.002366153753054229,
        -0.03822323476826762,
        -0.020631575627478048,
        0.0028697932391370867,
        -0.08069768274474821,
        -0.025890049425353286,
        0.03940835019341975,
        -0.007867739450756053,
        -0.06352478150516887,
        -0.05919420730586138,
        0.0032424491062496754,
        0.008805613869696235,
        0.0008402477225611526,
        0.003096089373727389,
        -0.019129658678738077,
        0.004698013395730974,
        0.0240874617306643,
        0.02007431406516902,
        0.00930279329745436,
        -0.03370825430766975,
        -0.03387152866493424,
        0.0018380850281803898,
        0.012255064474001268,
        0.023204220785238892,
        0.03769016712702544,
        0.04623492760153965,
        0.019860011884291737,
        -0.008723086143978542,
        -0.014652203484761223,
        0.01567332942433718,
        0.02689702341571576,
        0.04244788176849053,
        0.03622892865719546,
        0.04305855680627072,
        0.032479418103227714,
        0.017790739380577045,
        -0.003546453996631995,
        0.015303678972671582,
        0.01624800397418395,
        0.02738570755699306,
        0.0039498233098242365,
        -0.005023490266183596,
        -0.007481230263380321,
        -0.01971638478775929,
        0.006439431658559594,
        -0.013712413339877523,
        -0.02136181589090294,
        0.002033229478649405,
        -0.002526747072775337,
        -0.044075936948165036,
        -0.043046236918072835,
        -0.01892071391022147,
        -0.0528148565746377,
        -0.011706804314404162,
        0.026425283843072116,
        -0.03275346059412262,
        -0.053000574188216146,
        -0.028895249672369946,
        -8.65802430100035e-06,
        -0.01904258679166605,
        -0.0007211497706294313,
        -0.02132775601444437,
        -0.01211030306377385,
        -0.005866114333691886,
        0.011003963342964003,
        0.03161620645781891,
        0.04220021705163144,
        0.010887873614244065,
        0.011819891823408436,
        0.06648381198216764,
        0.06687738641854456,
        0.06123023501403144,
        0.08817542123555107,
        0.0990571601569845,
        0.036290935597208675,
        0.028091558917044016,
        0.01247216664825489,
        0.028285528557916877,
        0.06443152672095076,
        0.0920758092819886,
        0.10191139325768642,
        0.07653795962590744,
        0.023960308570779878,
        -0.0077343428091444155,
        -0.051723393991786444,
        -0.024123787891096697,
        -0.015108956904548946,
        0.009604972448627144,
        -0.020167917387638595,
        -0.007747870139896763,
        0.029107957094452654,
        -0.004917029740536493,
        0.009164453430237656,
        0.002784533014283813,
        0.011109040747549277,
        0.005183872392410367,
        0.012458428994134579,
        0.007345158388876792,
        -0.021892288559411235,
        -0.04852278477410178,
        -0.009614557364470923,
        0.01993059390704186,
        0.023272416822334475,
        -0.04590904142971253,
        -0.009077202089957374,
        -0.02435668323807378,
        -0.052068352533225094,
        -0.03551350029203222,
        0.011780807322925042,
        -0.0032321473294157576,
        0.002421081820530377,
        -0.03310701500088058,
        -0.053493574547923126,
        -0.06821221937047824,
        -0.07112842137962258,
        -0.0660739834088589,
        -0.04342641332136988,
        0.02753699118836406,
        0.09175468221761397,
        0.11472350176151767,
        0.12765803106940432,
        0.11567356056819618,
        0.049297243129560527,
        0.008414903564615222,
        0.019600795684947263,
        0.019751911930114382,
        0.0421723510824324,
        0.07671197636654607,
        0.10762094481586047,
        0.06031565322492765,
        0.02090630849708689,
        0.006296858895323008,
        -0.015273541549576278,
        -0.03975433253503353,
        -0.05753912829422114,
        -0.04943032586230374,
        -0.050475954360503256,
        -0.01271482047370981,
        0.027630627633536308,
        0.005344541864745939,
        0.02636500445698816,
        0.03791250290471851,
        0.026926685084038487,
        0.024868816522874145,
        0.03180116793865325,
        0.02070370648657314,
        -0.013587530786879118,
        -0.048025313743012055,
        0.0004778672694531433,
        0.041289421432165935,
        0.03256382755482965,
        -0.018224030862747653,
        -0.005035494350012319,
        -0.017752164951357497,
        -0.036937362649295306,
        -0.01460882317350991,
        -0.013325400443822067,
        0.026361289497319883,
        -0.009617159598972712,
        -0.08555769624607903,
        -0.08796687856128685,
        -0.06950045411031808,
        -0.08828662383927785,
        -0.09400346791811498,
        -0.05638182675475719,
        0.03583231957183202,
        0.07068650873876442,
        0.08811051839281578,
        0.0826556074346979,
        0.057861592608746376,
        0.01755322723083305,
        -0.0260600842954885,
        0.029497995255488487,
        -0.0019663970109092023,
        -0.0015561466069933011,
        0.026496491607991,
        0.08885492094900621,
        0.06632623443140165,
        0.007288549221610135,
        -0.0044116331819523255,
        -0.04374851281769451,
        -0.05089751402019303,
        -0.053571118496680496,
        -0.04625272044896576,
        -0.025123807953898923,
        -0.013786915187909358,
        0.04576269762686473,
        0.001401013549064675,
        -0.003398552591516208,
        0.009125377543931931,
        0.0038323491820779093,
        0.027395231044830583,
        0.01935487059853185,
        0.01641971163997912,
        -0.008688515959799088,
        -0.014504113616175124,
        0.009729687833196722,
        0.03671300902231456,
        0.029813247088732866,
        -0.010008794227212339,
        -0.01955556882985963,
        0.0008502570165897049,
        -0.020815404527962978,
        -0.00623086049928134,
        0.004081416897797063,
        0.0364068937823532,
        0.015276008867093363,
        -0.015428655467274231,
        -0.01761351095450219,
        0.02421003931779058,
        -0.037431027552060396,
        -0.07936764240066976,
        -0.03325631346114851,
        0.08823682756785055,
        0.09520595588696223,
        0.06149468449461131,
        0.05290462429475921,
        0.012690893365642645,
        -0.015247086674677555,
        -0.021216953761795634,
        0.004645384819049806,
        0.00042229864355028136,
        -0.008783260161822378,
        -0.024385975520423365,
        0.019900616965839,
        0.057473610821839806,
        0.02693388541407021,
        0.0075825599032512715,
        -0.048245548772620654,
        -0.043796663362257716,
        -0.02872904658542027,
        0.0048095458654430915,
        0.00162426145120147,
        -0.022416832425440986,
        0.026935016889820335,
        0.0026932053738622733,
        -0.0128318187998375,
        0.00018318503389793065,
        -0.010583165236329914,
        0.009713320494450757,
        -0.0004789896011742226,
        0.009089395110501395,
        0.02071135717554317,
        0.022684622082870982,
        0.0047909438813823965,
        0.001806164392829156,
        -0.008641132070694042,
        -0.024414849259005413,
        -0.015547783249389758,
        0.004837081356630916,
        -0.034742867121920644,
        -0.017750065313398324,
        0.057599653694895024,
        0.024657066556091862,
        0.009280044955530937,
        0.04568583751981166,
        0.05189479411831088,
        0.07021830471612645,
        -0.0030699731148504878,
        -0.080792846638952,
        -0.01105862317253308,
        0.055157427630635684,
        0.05361647670712105,
        0.02698204654485178,
        0.004096085779970407,
        -0.04249585046787554,
        -0.0654943645303289,
        -0.03254217975225885,
        0.007308648803354437,
        -0.010072151161707761,
        -0.043224798458808056,
        -0.042584451844709666,
        0.02729539954721924,
        0.06931946635264086,
        0.028565520696044903,
        -0.010970271380006153,
        -0.021269995758390337,
        0.03305954127161106,
        0.03331621173161192,
        0.03418106563232949,
        0.010397557086531076,
        -0.020514944334016,
        -0.028133539621860222,
        -0.060491804386410795,
        -0.008622149181711397,
        0.005724899860486399,
        -0.00045622446636812985,
        -0.015309793815221335,
        -0.03084130608853095,
        -0.001120696852281316,
        0.018824219996984918,
        0.015894204388684028,
        0.029030344682552424,
        0.004515156545162871,
        -0.007624964468917318,
        -0.008139582912567046,
        -0.0024556177652542426,
        0.009949774836658886,
        -0.04796827250480178,
        -0.017404046120463038,
        0.024954250578949438,
        0.019411181216409164,
        -0.011602814481348214,
        -0.004247210093774073,
        0.01710453528105183,
        0.0216312440167436,
        -0.005423465981023811,
        -0.018802924777284236,
        -0.007173265706778506,
        0.014901549480477567,
        0.020943727991270422,
        0.009187413057174383,
        -0.02419839363451186,
        -0.07301768016970898,
        -0.0660450806200661,
        -0.03885138945156836,
        -0.027130490443186456,
        -0.01909823019685523,
        -0.061423177197970726,
        -0.04494651399825016,
        0.005340729296212939,
        0.020215000235824343,
        0.021242054815953038,
        0.025484861629542038,
        0.012482464503726932,
        0.02486441754157421,
        0.04050471150709182,
        0.050426843528748856,
        0.03289546692085443,
        0.021208742861414966,
        -0.003456156628574905,
        -0.03167459816133969,
        -0.007595164619678035,
        0.000872880242647622,
        0.0038043772550927645,
        -0.03008701323954195,
        -0.041337479832813745,
        -0.03402608226426636,
        0.003797509771751547,
        0.0020794430139370844,
        -0.0016153733523237613,
        -0.02846207958335192,
        -0.03608441525124858,
        -0.018131366691385004,
        0.004698110217846956,
        0.01437287741348361,
        -0.04249830773151216,
        -0.015755951525948286,
        0.023240464815451604,
        0.00329442116358369,
        -0.014797650973674751,
        -0.013878094780346722,
        0.03866658775747826,
        0.04657191189899168,
        0.057102747322051506,
        0.05936515326883138,
        -0.005126382559255832,
        0.0016249247126605255,
        -0.002130745320580431,
        -0.010269660602595154,
        -0.03241959410166316,
        -0.05469516939414497,
        -0.03650975227416801,
        -0.05251719563259108,
        -0.0670308914008314,
        -0.020440996505139752,
        -0.06607744485767571,
        -0.03444562187531569,
        -0.028226289251704534,
        -0.07042322239818467,
        -0.0255277062466927,
        0.02457011580618552,
        0.01233902779427381,
        -0.01710484157856641,
        -0.013794896147192499,
        0.01016943994555786,
        0.009497935462966265,
        0.0007670883240025755,
        0.00964621944258787,
        0.009387732459917498,
        0.0066229079482432,
        -0.015130383879902416,
        -0.004715887736978889,
        -0.0014706588182396584,
        -0.02603924201332114,
        -0.0406478558870551,
        -0.009390988528429707,
        0.007914827013794257,
        0.019928251194850886,
        -0.03470689957816793,
        -0.0574108160119755,
        -0.027077098111412214,
        0.011101960715573927,
        0.01080056403776992,
        -0.018551084522208338,
        0.012615796339009324,
        0.016356625062265154,
        -0.022667664981714422,
        -0.03370247973811886,
        -0.008384021372748898,
        0.043300349849171145,
        0.01415052249061181,
        -0.019929186892068806,
        -0.03626878840800185,
        -0.0009180363025922786,
        0.018900047247236033,
        0.01227065351335934,
        0.009512598278493576,
        0.00235200559066102,
        -0.02551625856101463,
        -0.01993364100926249,
        -0.022563302609501835,
        -0.009712813490355358,
        0.016150451714579978,
        -0.034756944236770476,
        -0.015457446781693203,
        -0.0075873175172805635,
        -0.06492399143025944,
        -0.05567555341576202,
        -0.02027969155442975,
        6.797993780003317e-05,
        0.024204084892338492,
        -0.006420064719907186,
        -0.018689434684839055,
        -0.01695637816737815,
        -0.03654502966216503,
        -0.023892782509922793,
        0.0030185149882789616,
        -0.0058628241590310175,
        -0.019375596382438534,
        0.008359489319026437,
        -0.005224332275244839,
        -0.006685241036221146,
        -0.03388840056451518,
        -0.009760795890464894,
        -0.010991260815789489,
        0.00779273733015083,
        -0.033766877716738114,
        -0.058139182666572,
        -0.027344980827176513,
        0.032582981153127674,
        -0.0031124082788495664,
        -0.01992581814547573,
        0.01888953739908179,
        0.02858575440292673,
        0.018405555248406792,
        -0.019094174200765476,
        0.0039021818150187684,
        0.012123066226352099,
        -0.017265509206299132,
        -0.04360417669984374,
        -0.021557629060806754,
        0.005248321935317579,
        0.04250347730974888,
        0.015418738315768435,
        -0.0025100471357880046,
        -0.0047094212211803285,
        0.007731000243750762,
        0.02876077339537531,
        0.018487651487028408,
        0.017748417739593677,
        0.04731934100675626,
        -0.0016034802827820094,
        -0.036773674899905705,
        -0.0029007209155833577,
        -0.011108435862982938,
        -0.019708292480391104,
        -0.00527010037380994,
        0.012680850305516989,
        0.023452837474329937,
        -0.022330082211981912,
        -0.023884248387200737,
        -0.0014224519614823435,
        -0.01116289789693968,
        -0.004187480629881805,
        0.02511848359635483,
        0.0017209384953661203,
        -0.01886226693989031,
        0.01605365698982681,
        -0.018497548060147386,
        0.004201444556681262,
        -0.031221136987483297,
        0.0033285536732119607,
        -0.024526516956616947,
        0.042942380247459305,
        0.00576079759199886,
        -0.038666121094633105,
        -0.004281852906074785,
        0.005810303478937638,
        -0.01080747963509672,
        -0.0041850060433996595,
        -0.0005079124454814834,
        0.04039844491963413,
        0.02316524879000127,
        0.018233537442749352,
        0.0025652689704618206,
        0.015051415766712099,
        0.021977102896001965,
        0.03151051343944593,
        0.004005315338234422,
        0.008373974179519485,
        -0.001215696448129123,
        0.012681827995709005,
        0.023199158696065304,
        0.014793205144001731,
        0.01828802263016894,
        0.029544042673619892,
        0.033091946632384954,
        0.024415414359136096,
        0.038080006451201125,
        0.01299537053097158,
        0.0011294164677001582,
        0.009590375106673217,
        -0.01121556587627272,
        -0.01233949142195126,
        0.0009608199975086712,
        0.03185514468719457,
        0.05573817563025646,
        0.04700775196378171,
        0.016964960710219478,
        0.014037460912741799,
        0.035134179874131095,
        0.022738213706350874,
        0.037574862212221935,
        0.019751698793109423,
        -0.007493008728784948,
        -0.0009766481998327576,
        -0.02432916088985844,
        0.00023851993425803907,
        -0.022545620059377307,
        0.008362876280002113,
        0.02181073073094487,
        0.022675195768234485,
        0.01293966913178376,
        0.012262482108709845,
        0.024192216488050988,
        0.018324774729181054,
        -0.013463404371750377,
        0.011594298710658384,
        0.022566979042335227,
        0.04609082943681462,
        0.036374258954260996,
        0.02658157324120037,
        0.0334751841354156,
        0.05189297390034792,
        0.06830409722703684,
        0.025094360980005344,
        -0.01033780190036412,
        -0.01736059385398409,
        0.02670411121754505,
        0.046826847747782945,
        0.05058071115397877,
        0.010954995783186365,
        -0.020134248920809467,
        -0.02419121987107418,
        -0.005081463157719057,
        0.023172713966037477,
        0.053298178897529004,
        0.04978845547347685,
        0.03278286362231627,
        0.04342015935695204,
        0.047267941502377266,
        0.028843941184562603,
        0.021448532015149277,
        0.026085645328750986,
        0.03165749495455004,
        0.0497048185836492,
        0.039259042830506075,
        0.031444688764163,
        0.0478569726770181,
        0.023333018969464426,
        0.03208812317869657,
        0.028115654678047407,
        0.02023671205315686,
        -0.0010715205041565879,
        -0.0026858202276574027,
        0.02397691325846373,
        -0.014312102627572853,
        0.021256912064117672,
        0.035998316695961464,
        0.0007560224742165852,
        0.007040928314331507,
        0.017489642280134877,
        0.017023470771266657,
        -0.018836662767039852,
        -0.019894634509921648,
        0.022002989714319045,
        0.02218328128266807,
        0.061295509879720836,
        0.028152576226388466,
        0.04710631917389762,
        0.08885220321149383,
        0.10099403119701755,
        0.07943300703362471,
        0.012306966755853268,
        -0.025903967106554546,
        -0.03265589287771047,
        0.008653552795371512,
        0.026867046259057496,
        0.0294544420849793,
        -0.025136501591116467,
        -0.05118120167564461,
        -0.03287131321168936,
        -0.009239710208848883,
        -0.037388952112052835,
        0.00810170929849074,
        0.035109756990964476,
        0.045941431053251984,
        0.053241532004271994,
        0.035026731177773746,
        0.005468838925830956,
        0.005360005420992751,
        0.032861788360703886,
        0.027229876794623843,
        0.05224925492720381,
        0.0451626486855456,
        0.046486002524242606,
        0.07111288856539047,
        0.04984656316433394,
        0.06313799016928981,
        0.041458259835593834,
        0.06309090351599284,
        0.025016732372070912,
        0.014040082939957624,
        0.0278961006796273,
        -0.004641849819841541,
        0.02877028680044668,
        0.02640877288298365,
        0.002272145713803694,
        -0.0026266643506556945,
        -0.00523887546649021,
        0.010747824118946599,
        -0.029663594892731196,
        -0.023356539475973225,
        0.028254137838518815,
        0.04271791073311834,
        0.05350455578384211,
        0.005674309498077167,
        0.037365275040908454,
        0.055766496340590374,
        0.0700840343567965,
        0.053781512257261,
        -0.010512378005861692,
        -0.04844638380575311,
        -0.05692852033154354,
        -1.944761915575375e-06,
        0.010707383571595688,
        0.029662839169307235,
        0.007621682513132049,
        -0.024238990343941474,
        -0.005433697722364628,
        -0.021291474361830747,
        -0.06422415857384087,
        -0.01868199769584951,
        0.00776069813862263,
        0.017527400544384064,
        0.031642350937334064,
        0.022611920437343523,
        -0.02850663522835208,
        -0.03417361617416926,
        -0.010207974603999843,
        -0.003985998442187286,
        0.026206385184097798,
        0.03798988240032263,
        0.031794947916302864,
        0.044073298708398274,
        0.037524078089549384,
        0.035380309107478185,
        0.006107217522929814,
        0.05148613249297719,
        0.04701961043815486,
        0.034996199928904896,
        0.03608648795552027,
        0.02294173076647469,
        0.04487607204390603,
        0.017745824755314946,
        0.013779412471494822,
        0.015342560970606055,
        -0.011326279038850452,
        0.0038341716499455825,
        -0.018147286051806513,
        -0.029740116581030627,
        0.00771529179896272,
        0.03943968709190586,
        0.022629328231187237,
        -0.0020436321592497376,
        0.03165248154764004,
        0.04287940135774813,
        0.06647571708303837,
        0.020608217624035773,
        -0.05458153778769083,
        -0.0782524788261667,
        -0.09704877435794876,
        -0.024772499021622475,
        0.02585017260425306,
        0.0441580826719656,
        0.026868410633640035,
        -0.003324429474659458,
        -0.0031205077211229107,
        -0.030422008036328694,
        -0.04023260691934404,
        -0.015997934914675348,
        -0.0070302291463499415,
        -0.025149305314064833,
        -0.004128678305008024,
        0.03031549219232421,
        -0.00749127090982096,
        -0.05605776482993572,
        -0.07667941777927159,
        -0.04299979236566503,
        -0.00875637036141163,
        0.021152527464275515,
        0.027856197220203625,
        0.0194057309200094,
        0.026676467528267026,
        0.03310445491668841,
        -0.007631938576178288,
        0.0036614400926730114,
        0.02326200680816095,
        0.03133297896031545,
        0.020582364462652648,
        0.02839768212038244,
        0.03889127391806935,
        0.007537250851401333,
        -0.010362776875349904,
        -0.005010255266436299,
        -0.028787325505605532,
        -0.023171548741846716,
        -0.02277665699863454,
        -0.033327493679342304,
        -0.01808264179621323,
        0.004150554343607372,
        -0.015425768181125194,
        -0.026560891220474146,
        0.021111342423149108,
        0.042479255828922195,
        0.05182577672565445,
        -0.007506711716159526,
        -0.07276002026491638,
        -0.09857405418213988,
        -0.11000501740731355,
        -0.057457815178168045,
        0.02310386069083685,
        0.05230186279144816,
        0.01049202152704019,
        0.004644264598025428,
        0.0034450255570286914,
        -0.037807207251720536,
        -0.07428759701685633,
        -0.037157289196305586,
        -0.01925092088457167,
        -0.0206360281328885,
        -0.0004331817604349174,
        0.02349079669402942,
        0.022571171030423564,
        -0.03792589328504451,
        -0.09407428528331897,
        -0.06543117607004771,
        -0.03125126386070246,
        -0.009043398778038485,
        0.014458860462192318,
        0.020841465197355507,
        0.03025679575185208,
        0.0296761763196303,
        0.013764855832772973,
        -0.02570992845894451,
        -0.030565929115150905,
        0.0016463753291971806,
        -0.00230438184018186,
        0.00536468807827417,
        0.014054555503801535,
        0.0018428900346230427,
        -0.03380018863348644,
        -0.013038506254003716,
        -0.004220384249805109,
        -0.0071904046037804285,
        -0.01692903370307559,
        -0.026549689869350447,
        -0.028990510003293665,
        -0.004271292689813863,
        -0.01490831347352956,
        -0.0254973518195096,
        -0.017722831605717547,
        -0.009145858186134892,
        -0.010172167598833368,
        -0.044818510967324095,
        -0.07641816934116404,
        -0.10062677739469597,
        -0.10914312811196897,
        -0.08111596496091597,
        -0.021420437963667143,
        0.021020322157540863,
        -0.004824461467746776,
        -0.001440663536789708,
        -0.0033024364067140675,
        -0.04329895187119649,
        -0.08990559928329936,
        -0.06469919832157754,
        -0.048860209131630694,
        -0.04114632016929408,
        -0.025488696263623253,
        -0.037376863743827225,
        -0.019909344722038022,
        -0.038429040016519034,
        -0.09896707045458275,
        -0.10199929629794662,
        -0.07566718660272949,
        -0.046308782513345914,
        -0.03852790415388116,
        -0.026236453574862307,
        -0.010805785513590908,
        -0.00666430442596889,
        -0.0029164700900673854,
        -0.03309919965141292,
        -0.01149588486791215,
        0.001775470916235397,
        -0.010693484252077796,
        -0.009792136568493447,
        -0.0031883636260302273,
        -0.006249441586000775,
        -0.03697956425465774,
        -0.032551627036624474,
        -0.013807673408432732,
        -0.007641355773618466,
        0.006933688375975127,
        -0.011513580429856073,
        -0.031899678976542396,
        0.015632326365368328,
        -0.0073633204752383205,
        -0.005073952630454798,
        -0.053795482844281775,
        -0.07816413790918174,
        -0.06340522312749854,
        -0.1006061007740217,
        -0.07578376275831532,
        -0.07643296635898825,
        -0.10333638864585158,
        -0.10811520982280029,
        -0.04962180432437658,
        -0.006077450592976506,
        -0.002879103381787082,
        -0.010569873417963426,
        -0.034687988936737156,
        -0.06265916384792353,
        -0.07516342709068279,
        -0.02990055400710089,
        -0.03306880878267005,
        -0.06166165899873181,
        -0.04347287812559796,
        -0.0715383912254832,
        -0.09411293805947576,
        -0.06428719716288699,
        -0.12032950131424988,
        -0.1081583733995676,
        -0.08607557160035682,
        -0.052758705153177696,
        -0.03534770622073386,
        -0.053420033736958375,
        -0.048995380155623595,
        -0.03243626727549924,
        -0.03663043515855666,
        -0.06232722914149981,
        -0.014822672614345596,
        -0.00512210277727152,
        -0.006983182748224382,
        -0.023513046288983062,
        -0.005040218113310039,
        1.7645539013316014e-05,
        -0.023488717919992803,
        -0.05349715127766918,
        -0.05991737777210374,
        -0.02538427306642013,
        0.0013406264524438664,
        0.025438923379342348,
        -0.007835618707094974,
        -0.003368165469239475,
        -0.009815599962117252,
        -0.009539858278429719,
        -0.03323476856501708,
        -0.08292629875473849,
        -0.09027263595326164,
        -0.09351427605259349,
        -0.09850975276704087,
        -0.07987469488128153,
        -0.09908654358569054,
        -0.07193413961765842,
        -0.0565744165150662,
        -0.02340110621832437,
        -0.0038871476758652692,
        -0.012460544955361419,
        -0.013459161807629669,
        -0.009780235051421267,
        -0.030846630104437788,
        -0.02866563030286324,
        -0.03311134948099451,
        -0.03691059290986692,
        -0.045591010959112006,
        -0.07624028238213963,
        -0.08974922720874443,
        -0.11160734723554867,
        -0.12084661634377745,
        -0.1433219720673643,
        -0.114746747199793,
        -0.08560341293328921,
        -0.054739797680074365,
        -0.059778882826158244,
        -0.07090551264297665,
        -0.0339077479199115,
        -0.053731667089148206,
        -0.04767525917598897,
        -0.034509693120217434,
        -0.011623766610963782,
        0.004772608650476169,
        -0.02434591342396681,
        0.01705110667110026,
        0.012383387093408645,
        -0.023778769518757095,
        0.011443761488702279,
        -9.737983523841523e-05,
        -0.015696780445646544,
        -0.00328093721233929,
        0.030914987461273333,
        0.0013505652174496516,
        0.0010769253734578064,
        -0.011915374852679513,
        -0.012622709866477816,
        -0.03672705805392073,
        -0.06033935790997776,
        -0.07531486836389494,
        -0.12475169357081738,
        -0.12594079086290386,
        -0.11180544691236916,
        -0.09910472980767034,
        -0.1029552843756426,
        -0.074997462915463,
        -0.046566915164485766,
        -0.0035554825594403838,
        0.002231702647200461,
        -0.004801250632400352,
        -0.01112988448806579,
        0.03307400890120602,
        0.022018377726826553,
        0.0004294765273901205,
        -0.0034646327335503416,
        -0.005563971757504671,
        -0.04739533126224866,
        -0.11680267403818476,
        -0.11330743166896527,
        -0.14683349196510687,
        -0.16679604031969988,
        -0.13174123622951872,
        -0.0994040338828428,
        -0.05264169481352469,
        -0.027985354693221165,
        -0.03440608039737544,
        -0.0325407791249151,
        -0.05411705660109068,
        -0.019533039825299255,
        -0.003913410302577865,
        0.0018245349693688955,
        -0.012496301023966365,
        -0.019702897006904967,
        0.017653712363750632,
        0.021088244884053337,
        -0.012861455976629311,
        0.03962696518900944,
        0.009248301191010694,
        -0.040656508412466555,
        -0.017759239077972985,
        0.030036361290399535,
        0.003257028812513598,
        -0.015337615035182276,
        -0.02648609510489468,
        -0.021578545601805645,
        -0.03905150536105236,
        -0.03107975513616037,
        -0.052030285563177195,
        -0.11315305670403102,
        -0.15938329346689498,
        -0.16781239592275257,
        -0.1572920946677889,
        -0.18932815880141438,
        -0.12878337083090025,
        -0.07348059090741325,
        -0.06951511216901787,
        -0.06770510553346652,
        -0.024864181797301384,
        -0.012490752461396717,
        -0.01310287752005696,
        -0.008263321459673572,
        0.008147101833988575,
        0.024238890148366457,
        0.04898685728697643,
        -0.0016262256137180174,
        -0.10523748435336899,
        -0.10252133733153937,
        -0.1598714896869686,
        -0.16756066915930395,
        -0.11556479584891097,
        -0.0914127755995163,
        -0.028794026602180108,
        -0.0145861666801626,
        -0.0033594868884117396,
        -0.01009790542592274,
        -0.0499646008847782,
        0.013918559830308794,
        0.016393688293726855,
        -0.008547065615158327,
        -0.030451163891597986,
        0.0009656139393065681,
        0.015715249397120132,
        0.042420417248147144,
        -0.016337174546369855,
        0.0031302961486041644,
        0.0032575697344324177,
        -0.035440321015247106,
        -0.019416722827042925,
        0.023548043646659758,
        0.006040261092968486,
        -0.026875742855387387,
        -0.02734413973669902,
        -0.0005806846130989461,
        -0.03191697544368915,
        -0.05143494024832727,
        -0.053955192212622086,
        -0.06488944425077013,
        -0.10517024530249999,
        -0.13747203949174416,
        -0.16323994170423778,
        -0.15009068983686424,
        -0.08816772685128627,
        -0.04264540601008006,
        0.003839531660314557,
        -0.008314905547231147,
        -0.024686657255047713,
        -0.01933768463887502,
        0.019080159766173888,
        0.015996533501838862,
        0.017100076148162155,
        -0.017022168085808427,
        -0.011752564039898494,
        -0.05152885468959721,
        -0.09665995503104406,
        -0.09340292984833597,
        -0.14553962976637133,
        -0.12206735602499659,
        -0.06644052788237255,
        -0.05134584911828779,
        -0.029606449402478446,
        -0.023157320123673258,
        0.01693605438814874,
        0.03082749254843057,
        -0.010031929848338068,
        0.03397761293421253,
        0.0074684967037210144,
        -0.009150747697693081,
        -0.01692388419938827,
        -0.005573432811049868,
        0.020424714507035754,
        0.03172009251497749,
        -0.046508208323713614,
        -0.03410679172711072,
        0.005787814412052014,
        -0.03123649794469424,
        -0.018703942945407642,
        0.019440273398633044,
        0.014702044982665698,
        -0.003118051016637872,
        -0.0114175425721809,
        0.00838669380233608,
        -0.006994218187608263,
        -0.03930780881021474,
        -0.03620061061828966,
        -0.025239549145513462,
        -0.029820255374022015,
        -0.0371330208638888,
        -0.06139665274830421,
        -0.08579322367576299,
        -0.05219462951013525,
        -0.03142025779609049,
        0.048165787791624115,
        0.057694750737955304,
        0.05580701055704056,
        0.08587456627824773,
        0.08585183847456233,
        0.042460878229773534,
        0.039269857362328964,
        0.01864512117368076,
        0.01568962574550052,
        -0.023300347385041355,
        -0.061246934711937845,
        -0.0714828549365265,
        -0.07204342095909944,
        -0.02982454253325416,
        -0.029270493737460074,
        -0.04169072837362748,
        -0.021974655717247493,
        -0.013322619934195257,
        0.005947920292338114,
        -0.00288572157989205,
        0.019985804313021622,
        0.025530994652703063,
        -0.0006688549129211924,
        0.008523325634683596,
        0.0029263203289952087,
        -0.035616857569084406,
        -0.012952845439368643,
        -0.0048979093344537405,
        -0.004877417769979634,
        0.001322745799291406,
        -0.013018713675652925,
        -0.03262436596500223,
        -0.015561071801965821,
        0.017995839522786695,
        0.021720883705179616,
        0.010702161110150427,
        -0.02389377979614395,
        -0.013052157262844415,
        0.020000998885266037,
        0.004078845817883812,
        0.012434160772162342,
        0.011954801579265501,
        0.0118544178462298,
        0.02766258176844025,
        0.008004459052765272,
        -0.017347558759155442,
        -0.0013754846395374488,
        0.002989391202712659,
        0.06997537116482276,
        0.055410440244072184,
        0.07441452472505691,
        0.13209964557684556,
        0.14045923582628708,
        0.08487218256792953,
        0.1100400291208514,
        0.09451961131008971,
        0.03469337109392133,
        0.0015222383746094402,
        0.001649308174752635,
        -0.00016542688623021485,
        0.005863196186578661,
        0.026594402475552427,
        -0.009623969294566588,
        -0.038557611908966304,
        -0.0007230267348746979,
        0.03445319811118548,
        0.025213745279563687,
        -0.00771426445871907,
        0.03137757243298879,
        0.03829466348321182,
        0.032273949965299115,
        0.04818489326215197,
        0.012936894156577929,
        -0.04897883166335719,
        -0.015175769759535395,
        0.021228964418914687,
        0.034687446953324506,
        0.02042579251073173,
        -0.026100723653702633,
        -0.025402684743422263,
        -0.010473108890078336,
        0.004444872213506549,
        0.022322653323599943,
        0.011946154167139808,
        -0.015738734140780596,
        -0.013917356013426016,
        0.023998103539745495,
        0.018574343553130812,
        0.036329484111388415,
        0.07275543331044326,
        0.03988897055974074,
        0.01910777346595066,
        0.03734893124573609,
        0.038304390681783096,
        0.039198651911930206,
        0.05494312370466343,
        0.09114952161373166,
        0.09211161250597324,
        0.12179822999304418,
        0.1693269093357203,
        0.1650850706342644,
        0.15478527872519765,
        0.17051823049882106,
        0.1321962460901168,
        0.07043763229064458,
        0.05104585100680206,
        0.04078107194624365,
        0.03576799573935107,
        0.038159567857406186,
        0.04729992230575474,
        0.019651512337739978,
        -0.017738656377687703,
        0.0009734483331782837,
        0.007282589855765508,
        0.027082129303851545,
        0.03211587412900074,
        0.04157401211255311,
        0.04669384406061263,
        0.040472798193055284,
        0.050433551694187555,
        -0.0015825893878720235,
        -0.031195250583346074,
        0.012051136255273672,
        0.0214267940043857,
        0.02793221840668431,
        0.018979091842067287,
        -0.005396881571143074,
        -0.04670713103353748,
        -0.019854274663696256,
        -0.013928629060242283,
        -0.014598378615997953,
        0.007911909085845248,
        -0.019662553639642824,
        -0.02282521210297778,
        -0.013912291097514833,
        -0.004802165731435385,
        -0.009096730481964034,
        0.04821266124076312,
        0.06386591306456607,
        0.01879580217473663,
        0.028124336571052552,
        0.05485549836957307,
        0.05290503115196963,
        0.04186839605389587,
        0.0387884314635417,
        0.08997480284798441,
        0.11029666386195752,
        0.09302271150499612,
        0.11761821548771266,
        0.11300708831384985,
        0.08310088408572307,
        0.06392327310070595,
        0.07077733260842523,
        0.0981071997958385,
        0.08622598521713021,
        0.07088758984624878,
        0.0698892896643958,
        0.06516429845086552,
        0.025007402097506907,
        -0.007827249140081673,
        0.007823288779363566,
        -0.04481759452159175,
        0.003123150039200872,
        0.0053972103380179985,
        0.012391019830244628,
        0.035418809386116856,
        0.029276089036027873,
        0.03344650933181645,
        -0.016597995131485688,
        -0.028987219450231316,
        0.01287960457108116,
        0.040835277908913455,
        0.023042404009272707,
        0.024346168942935637,
        0.007453119282032969,
        -0.012095296401334424,
        0.008657384856684353,
        0.005944380558364971,
        -0.02193458206239756,
        0.0008917505593631251,
        0.005737475377891391,
        -0.021459300291704217,
        -0.007847428695684189,
        -0.015644818817873125,
        0.013648871459956847,
        0.0439688268833812,
        0.07201102374211354,
        0.07623988325489578,
        0.03491766903467549,
        0.04807220585035356,
        0.06909788644370002,
        0.09494668828831268,
        0.0661696861592769,
        0.03652553386450281,
        0.009452586017044868,
        0.04715656734926516,
        0.0602350899839376,
        0.06347765221578149,
        0.05241966727975148,
        0.046018023178918344,
        0.05765507262336559,
        0.06180912723385573,
        0.06533294071241143,
        0.046564377903508467,
        0.02532931871515839,
        0.044637510822867245,
        0.011711040291179163,
        0.018768624328447746,
        0.020944352198389037,
        -0.022626832872821294,
        -0.02183749617287755,
        0.022676600384832903,
        0.015428577854927766,
        0.0037178058164988666,
        0.02994490064730394,
        0.015294603000147428,
        -0.013560027456835096,
        -0.03480222385984146,
        -0.002150215458350243,
        0.05160772786897141,
        -0.01242902850737412,
        -0.0036206423088576824,
        -0.0013536477448716413,
        -0.013808083533540303,
        -0.006080574712585822,
        0.022529573498655406,
        -0.015580892214698397,
        0.019611557113703854,
        -0.0254693581871114,
        -0.055873500611563404,
        -0.01864124681511262,
        -0.003527500425422199,
        0.05784989550286368,
        0.01908083694489262,
        0.03359155953726072,
        0.08450760002305373,
        0.06383532008889596,
        0.04582600545592742,
        0.041175451248794494,
        0.06561052119158983,
        0.05296946693026621,
        0.028575953438036317,
        0.032295685046636484,
        0.03681455891977209,
        0.04230339500011188,
        0.0410351565609345,
        0.04130152418696845,
        0.039796832959453285,
        0.07322094400482194,
        0.08889276831077751,
        0.05181965623826361,
        0.03303255889925185,
        0.029969135174206313,
        0.02416433642379428,
        0.026654910247203303,
        0.05311521203674744,
        0.040693748739749354,
        -0.013470021182553952,
        -0.019173604082451678,
        0.01843789457311219,
        0.03219465515790433,
        0.011532493581927846,
        0.01179751132141027,
        -0.007054522103735302,
        0.0031118167578707834,
        -0.034825190881541096,
        -0.03543905089748035,
        0.011591865617074985,
        0.006189250568819998,
        0.011233321811598793,
        -0.013302311971869537,
        -0.03318112380663932,
        -0.01858019870634124,
        0.003921896611684841,
        0.00022308783330984372,
        0.028868370649725354,
        0.015007859153618651,
        -0.013645559852396643,
        -0.005211674799790789,
        0.01057059533327577,
        0.034413350060041606,
        0.01733336985534795,
        0.036714206362568,
        0.07501190949000906,
        0.06202773381452658,
        0.03660877725394769,
        0.04277831176901335,
        0.04658261371370585,
        0.03597004744434378,
        0.018548368152142836,
        0.027811284691175622,
        0.048130329223335946,
        0.05494868851980281,
        0.03819626604514315,
        0.02837046308942489,
        0.04837518916488012,
        0.08303550891282208,
        0.0905067838757237,
        0.0448161999588736,
        0.010021851685484166,
        0.023045295370116688,
        0.034345869407975134,
        0.026682067128625076,
        0.049901488065104777,
        0.02953974193130937,
        -0.006254750210340267,
        -0.007009683461408332,
        -0.003952020173645324,
        -0.02476534579476427,
        -0.026343397150762154,
        0.018926136178389227,
        -0.011452180546046728,
        -0.002586175667668577,
        -0.01234298680052574,
        -0.02985311448887144,
        -0.018264874372994462,
        0.02778040445302446,
        0.028977172193089058,
        -0.023843473832835183,
        -0.02885542406789637,
        0.010447878009513639,
        -0.03401034489610592,
        -0.021275617990678494,
        0.04950149353152053,
        0.033286232373339525,
        0.0006972587747743936,
        0.012085489057250319,
        0.01253908855618526,
        -0.001732997246294993,
        0.025166536120340734,
        0.02094356918685362,
        0.00916178786933615,
        0.016130360475434858,
        -0.0025325400654468175,
        0.005667880502616708,
        -0.009778792352769801,
        -0.0011990889058670219,
        0.014060720287084225,
        0.03331095722375147,
        0.05865842053668779,
        0.08719342783693446,
        0.07609090999118086,
        0.03449405384733595,
        0.03254875987147079,
        0.06042649070495484,
        0.07180181046028804,
        0.027412667811622538,
        0.0007659964607158409,
        -0.006481307457133378,
        0.038249709768190046,
        0.035454888197583044,
        0.0436553698697482,
        0.020463848380883484,
        0.006473890123572937,
        -0.015424601255546072,
        -0.03512864731527509,
        -0.07170236860249267,
        -0.041767209905751015,
        -0.012076000061748285,
        -0.034376491755687105,
        0.010204035039025703,
        0.012176544637926853,
        0.0034642329751858898,
        -0.0035506373480692615,
        0.045792933111579295,
        0.02291617279644002,
        0.0037403056460523164,
        0.0318196098986202,
        0.061972807276198486,
        -0.013408477347862912,
        -0.0405315464649426,
        0.01580003349971766,
        0.03083961241657318,
        -0.006167840871499525,
        -0.004025875541828156,
        0.014044770992869094,
        -0.02915721884392557,
        -0.01095870511153081,
        0.008137813578820896,
        0.01725426544724738,
        0.006806872915834153,
        -0.016414990499796667,
        0.001183971550699102,
        0.010181186981209376,
        0.02817085748975842,
        0.03409245276172295,
        0.02011662328366252,
        0.025327621351068877,
        0.043887493250949275,
        0.0204023955292918,
        0.0020963438243846648,
        0.012303587682309087,
        0.02664955220592284,
        0.023991521836675498,
        -0.010197327728047269,
        0.00037313235223296207,
        0.006913513000083954,
        0.012022592934632068,
        0.023530415932362762,
        0.03608848871024552,
        0.0009917034246733991,
        -0.03237915213572767,
        -0.0705649902230834,
        -0.07614191075601424,
        -0.039865788612778,
        0.01837772145996419,
        0.019163099042949064,
        -0.007596461758397172,
        0.01873652111718892,
        -0.0017556697955577233,
        0.016998628100678186,
        0.04080222614682901,
        0.0347769380148835,
        0.0052933552962384275,
        0.008590112187963378,
        0.03881270066572317,
        0.04503652733907227,
        0.0031680067739698952,
        -0.029335318196479294,
        -0.04248269896905055,
        -0.007035621329118301,
        -0.005700780674244607,
        -0.0013909697399023466,
        0.017200296265212106,
        -0.0124691964845111,
        -0.032630842247980664,
        -0.0040692486967569405,
        0.011175146603881289,
        -0.00032597135516538266,
        -0.03468987371995391,
        -0.010980207860180115,
        0.004462995665292409,
        0.01950809675024754,
        0.04603831573740474,
        0.06458194598603353,
        0.05669249230096647,
        0.023669653001848603,
        -0.010869952779341968,
        -0.022286744788437767,
        0.0012674898311753116,
        0.011696311913071323,
        0.004658579488867804,
        -0.0015624100959098998,
        0.017720903104361165,
        0.003599959852102229,
        -0.030636395763799867,
        0.004123454784648815,
        0.042950196307263544,
        0.01099438068305576,
        -0.041977626987887935,
        -0.07265515126925286,
        -0.03090984816394513,
        0.006633830329316391,
        0.01141610219776904,
        0.019477789314810454,
        0.03461342714271992,
        0.04674885142529179,
        0.020926234035495407,
        0.011851949821909551,
        0.007573670130357346,
        0.019234781522655214,
        -0.013993169759292023,
        -0.020726829941315774,
        0.00418154122921952,
        0.009587662684543443,
        -0.001504902946364108,
        -0.022337313098603945,
        -0.008304413238715669,
        -0.011283667095284552,
        -4.825370588219194e-06,
        -0.0166184689565868,
        -0.011366086403245419,
        -0.01798185711987312,
        -0.04132565565301191,
        -0.012397666840234804,
        -0.029314320185912467,
        -0.036549806789309164,
        -0.0503477382211043,
        -0.052444555013884675,
        -0.026372468426070786,
        -0.011564375447238607,
        0.029674542515535,
        0.0686715558076346,
        0.05825268312710977,
        0.034252080011054814,
        0.002715843527513937,
        -0.035269639174927,
        -0.012482954928412213,
        -0.006292971758349901,
        -0.010941824596178642,
        -0.008407425249480481,
        0.014731432974927974,
        -0.014817233639892912,
        0.00044220655756709455,
        0.021872614002032408,
        0.027328666105622963,
        -0.004370415371346852,
        -0.03741314521238408,
        -0.03551505863062257,
        -0.002601491740689516,
        0.007943015028229958,
        -0.014962107893244236,
        -0.023807325531037375,
        0.008497044648290234,
        0.029061968228676075,
        0.024640139218796535,
        0.007103331401600395,
        -0.029353048293612717,
        -0.00927979564597336,
        -0.0525728914166568,
        -0.027623878482515022,
        -0.009175504440959688,
        -0.01395683975007961,
        -0.014358994394056721,
        -0.035924123066734676,
        -0.0020769004938596338,
        0.015740169738220317,
        0.01897351458756365,
        -0.017315750787519957,
        -0.01744425063364512,
        -0.03498027901919682,
        -0.03882676867374472,
        -0.010852367512326985,
        -0.03207091620034017,
        -0.02492153820004703,
        -0.012776335674401106,
        -0.036052798415166856,
        -0.013648973771349902,
        0.043315046298073104,
        0.06230289215587954,
        0.06690929082567705,
        0.06975426867089865,
        0.07670991352636766,
        0.047247218476896904,
        0.009970364505909907,
        0.03465304102952084,
        0.012807052292759037,
        0.0077024515325015905,
        -0.00914343637403852,
        -0.007744865434427493,
        -0.009025530812539572,
        0.03919138697079422,
        0.030816340928322916,
        0.02634269494786254,
        -0.016014316405449144,
        -0.019277058270406905,
        -0.024087688342676515,
        -0.0065694598590682746,
        0.011318360129986441,
        -0.024672091578774088,
        -0.05522777466162793,
        -0.01820522809455259,
        -0.00812664722000457,
        0.012546995649474153,
        -0.004919875737454874,
        0.005229653530845185
    ]
}