{
    "bias": -1.586999999999936,
    "weights": [
        0.05974949988647998,
        0.04629484520027726,
        0.030316846473348518,
        0.03541326191460879,
        0.043376948225106536,
        0.010995790010500961,
        -0.010097490031165848,
        0.005182522400683015,
        0.00468931589197864,
        -0.02883871424996712,
        -0.0014693834177847646,
        -0.012337287024041224,
        -0.02412976612358857,
        -0.021554721950227045,
        -0.019552079530503332,
        -0.005211371362018209,
        -0.03272238513500169,
        -0.025729807102880094,
        -0.00540314731763704,
        0.004515952997710372,
        -0.01360388287338083,
        -0.00930934083955135,
        0.02673574033696039,
        0.024439957028116268,
        0.022586576377401715,
        -0.0034751633767050347,
        -0.01939742064731554,
        -0.0026132521405796503,
        0.012954184567549296,
        0.008821835980614798,
        0.01200895958822795,
        -0.002650855948086381,
        -0.02730905149297849,
        -0.007675105787170174,
        0.013751155830595772,
        -0.0018226780398928346,
        -0.004570171747221293,
        0.019357860680828197,
        0.0033028584103152944,
        0.03164789188699803,
        0.0256730914418318,
        0.030840701398716325,
        0.016723559520610675,
        0.02158696019715323,
        -0.0024003087189646524,
        0.0044544964974581065,
        0.07229925512095815,
        0.13112245637257056,
        0.0661852358909113,
        0.03640011279197321,
        0.027305726546740405,
        0.019418014163807003,
        0.03181734707714296,
        0.019277505347242912,
        -0.02688553399067539,
        -0.02874884454181585,
        -0.008886793972310887,
        -0.012488523320190837,
        -0.019352951934199503,
        -0.026563034502263234,
        -0.038322748503122415,
        -0.047437419150817,
        -0.0596140417444623,
        -0.034278520677559605,
        -0.020071240929952466,
        -0.032215231303100784,
        -0.02342107225974646,
        -0.01071126992482102,
        -0.023206024576427613,
        -0.03730675378832896,
        -0.027059131015587302,
        0.009078294766883776,
        -0.0036623120267713677,
        -0.027754186366619676,
        -0.04243730185481377,
        -0.022865440597959245,
        0.011460073927824499,
        0.01315335816814774,
        -0.002553496845343682,
        -0.02465637429699066,
        -0.023583974172749534,
        -0.009223577830703728,
        -0.00138204017371241,
        -0.009451899246021833,
        0.0004310573533881593,
        0.00643219887395759,
        0.01712838314936041,
        0.0030836820781552834,
        0.003546185549336901,
        0.014645989457160705,
        0.008605948156924092,
        0.024606298405602817,
        -0.009601841918876159,
        0.009227284842763845,
        0.02479684578073085,
        0.10507299615620967,
        0.043570797203214814,
        0.0064481564025133725,
        0.03666371990991353,
        0.04248120138699766,
        0.06395235428763373,
        0.030360378515271926,
        -0.0027498888201143443,
        -0.0047944669378903095,
        -0.004213582142277261,
        -0.007087640806825287,
        -0.029459277662594735,
        -0.019944367728775964,
        -0.018972715754941097,
        -0.006866964430726125,
        -0.011349365954385297,
        0.0031983613033738584,
        0.008726159004255201,
        -0.009575479637602852,
        0.010009984250542114,
        0.021913725240253885,
        0.024216887641302358,
        0.02627161086427956,
        0.006836478991218691,
        -0.011655231947222082,
        -0.02196118183881317,
        -0.02495903132135442,
        -0.027000633750559496,
        0.000836985876185833,
        0.018852853765212844,
        0.022465261810731607,
        -0.0005272487097037729,
        -0.03361441298453665,
        -0.04388021955803878,
        -0.0359019841549485,
        -0.02490770540112773,
        -0.014462302045072878,
        0.007547917057480226,
        0.009248275443976476,
        0.017303349648825773,
        -0.0030981979915994037,
        -0.03787522987361449,
        -0.012616259289690252,
        0.011100984042226023,
        0.016869155523669,
        -0.03492054516554878,
        -0.006962852473454848,
        -0.013624584795942684,
        0.048175834008272994,
        0.021877506684290768,
        -0.005215609625504672,
        0.004875819354280603,
        0.014639095177388777,
        0.0476140970054398,
        -0.008090191639704508,
        -0.019538818583525353,
        0.0022057146953219234,
        0.006522296307333285,
        -0.010535232620345034,
        -0.01707160033096262,
        -0.0023658581356390813,
        0.019000565283924513,
        0.018528772416148375,
        0.013680504222343256,
        -0.008890668903829562,
        -0.010520162076026737,
        0.003154889217686199,
        0.03269509501177068,
        0.017746714813818933,
        0.018553875449241242,
        0.030280638851606364,
        0.023162328847389183,
        0.006482825552741204,
        -0.00926148865690285,
        -0.005812152782275088,
        -0.015371892417223025,
        -0.005219457815439893,
        0.0025072288926477502,
        0.005856618545482958,
        -0.018055180441737626,
        -0.044275261634251696,
        -0.036860602884774565,
        -0.02541184105981916,
        -0.015364159559479968,
        -0.02352511119006305,
        -0.03436454895353363,
        -0.018123080379078907,
        0.013481402095232676,
        0.013823501746867417,
        -0.01662591107583959,
        -0.006829735015601225,
        0.032279781884953625,
        0.021139308883128066,
        -0.03423245060170083,
        -0.016255295026201724,
        -0.014266480505351658,
        0.007395371438927651,
        0.02014790737659606,
        0.003019094801908344,
        -0.007195296789544931,
        -0.013709047189499928,
        0.010806022576305868,
        -0.02449741081952805,
        -0.007295180293690229,
        0.02923763643915538,
        -0.016760607523647175,
        -0.04209574470592137,
        -0.016265459494357135,
        0.026516447769917503,
        0.021730020863556476,
        0.0011693404717721657,
        0.007057378354392195,
        -0.012055844787505059,
        -0.011366846682179051,
        -0.0023595525557661167,
        0.02545317485876564,
        0.01784858920989275,
        0.01932506970900871,
        0.01626728450799659,
        0.014725590883857352,
        0.01816839305262288,
        0.02318160004385828,
        0.01131182173213902,
        0.01012103741720929,
        -0.0016485584381884905,
        0.03359540412933282,
        0.034246354559679365,
        -0.005643913774462764,
        -0.016178075027177212,
        -0.008861246057532324,
        0.02252135803009728,
        0.010089897990851948,
        0.002258232011274283,
        -0.01880545709819988,
        -0.01849572959008143,
        -0.00021093733289786175,
        0.007579346332660385,
        -0.014144260217205652,
        0.0045080672574518855,
        0.05403122281355098,
        0.02212682009816527,
        -0.021528984674331435,
        -0.007698875729905988,
        -0.004159850528628328,
        -0.0018217578370872014,
        0.016878077027459172,
        0.002053223122444067,
        -0.01342884103085169,
        -0.0030136677385244936,
        -0.002418658587525296,
        -0.009727711518284922,
        0.020772451565348155,
        0.02879047407917986,
        -0.0035262926604918655,
        -0.012125295709133831,
        0.0020350167572897294,
        0.005210954058975328,
        -0.007340118615085963,
        -0.003929585930305334,
        0.0010157305656910308,
        0.02052215777929208,
        0.007688554032554929,
        -0.00798237359227223,
        0.01725328730430994,
        0.04673623522792491,
        0.04556484819171711,
        0.03098759844422668,
        0.031174469696032443,
        0.03231757760034869,
        0.011758770156431713,
        -0.002650013328252178,
        0.009308062799547804,
        0.01774124445114884,
        0.04824228158211245,
        0.04131524668018623,
        -0.006393450208942507,
        -0.012292466692560948,
        -0.014195780235813592,
        0.010013559113938648,
        0.01666390534687151,
        0.017734578706503457,
        -0.007495215799233079,
        -0.02484979911453982,
        0.005337771748892527,
        0.006891464810856798,
        -0.0350700504899205,
        -0.002341715244036089,
        0.005915446881793254,
        -0.00016257598894281152,
        -0.010558604671743401,
        -0.009600889491898008,
        -0.01417878200938376,
        0.010198566633866746,
        0.03072789485006789,
        0.015253966985890974,
        -0.018912613081898316,
        -0.01696159361878522,
        -0.008582534805617693,
        0.004770125851094872,
        0.024691164907549495,
        0.021087582300188295,
        0.02590820686191145,
        -0.004429053014526216,
        -0.014452247588515012,
        -0.010168740817550972,
        -0.005200745294505621,
        -0.0036152207690648757,
        -0.0017641116740718865,
        0.002915780883588178,
        0.002736861560227951,
        -0.01646047900983089,
        0.008426897484072498,
        0.025562382538531686,
        0.018662715242628948,
        0.012816732067850901,
        0.02382186148798196,
        0.025781189864825145,
        0.010916595065042318,
        -0.016472437920121857,
        -0.021981976971923414,
        -0.01937468342276912,
        0.019087010342931785,
        0.030929561702346016,
        0.005836649185750415,
        -0.0035467341918360156,
        -0.008680637263601278,
        -0.018872775859970138,
        0.00669905681457981,
        0.040504759294669165,
        0.0006353050578537732,
        -0.01927093642287237,
        0.010347367168936337,
        0.0027678196135374694,
        -0.01382177407451667,
        -0.01629931330539592,
        -0.025322222952242172,
        -0.03451349070234919,
        -0.017895943313401084,
        -0.023153039547326427,
        -0.01752546156615017,
        0.002616509805141492,
        0.06227918266567475,
        0.02837541851562795,
        -0.04189239767502102,
        -0.047066640169897374,
        -0.008703396821649978,
        0.021670632072476277,
        0.026360007416581906,
        0.012158566208622804,
        0.016509924687317372,
        -0.01407091694479914,
        1.857523343400851e-05,
        -0.012526499626010407,
        -0.004919844524059162,
        2.8071381013699604e-05,
        -0.00850940495283551,
        0.01726462002148434,
        0.0004870231609540207,
        -0.001367189900563707,
        -0.01645396699259256,
        -0.01915481194962501,
        0.008594924832420161,
        0.026925866856759077,
        0.03658362609727267,
        0.0395200996126218,
        0.027687166520315686,
        -0.0045632262461193715,
        -0.02092890650393621,
        -0.034365910390548995,
        0.0009314474425955977,
        0.00107352302649316,
        2.2230314651273063e-05,
        -0.0023462698151652276,
        0.008968044931351438,
        -0.022949313294723737,
        0.013454903076766203,
        0.030421061814850124,
        0.0073811207602959466,
        -0.008424982889389662,
        -0.015448109729030745,
        -0.017219799061984585,
        0.021420007219561513,
        -0.03172804320743537,
        -0.026384955951005817,
        -0.049348304556705615,
        -0.012327649914168827,
        -0.02715577357135398,
        -0.030432723853442884,
        -0.01210391239538184,
        0.0308703546955881,
        0.009455229827063686,
        -0.008869596831194131,
        0.00643876382701007,
        0.005119579124432561,
        0.034925951088977315,
        0.009986374287904122,
        0.0030580626255279726,
        -0.007805683103940763,
        -0.027233632015182124,
        0.014159301132150115,
        0.031837506647439076,
        0.022838380650703084,
        0.009552810007817316,
        -0.00154652844599042,
        0.0066640762687822635,
        -0.008072064581965953,
        -0.013493242570942528,
        0.0016693342775167452,
        0.035687597849966224,
        0.020189607586251396,
        0.030732966082531264,
        0.0401413471173944,
        0.029731218518750636,
        0.011990924139820194,
        0.0026351930718493967,
        -0.0028131887995834297,
        -0.014964941164603385,
        -0.03488654195199306,
        -0.01946992537641679,
        0.012636957970828784,
        0.008747616572160269,
        0.010238785068058368,
        0.006253628543319284,
        -0.012703772474077503,
        0.008054709223531102,
        0.03189618716252894,
        -0.004268901347418763,
        0.008273202124994113,
        -0.018881004697397265,
        -0.0012420011944654873,
        0.029672035506019642,
        -0.02280846363486129,
        -0.04433308656471476,
        0.004447068051666146,
        0.007577449553520332,
        -0.02595029378759789,
        0.006032473503072552,
        0.00530547879365865,
        -0.004837720058377449,
        0.0125718370771182,
        0.0015276651894434155,
        0.01929955569362959,
        0.023871320770509883,
        -0.0379434288427251,
        -0.018538150225130914,
        -0.033626783383550525,
        -0.045019740061036,
        0.014093867161242432,
        0.04078394950736457,
        0.04470939183540175,
        0.044310970603589205,
        0.05110639179987338,
        0.018847979123349498,
        0.04655125934624435,
        0.012674351988626839,
        0.044790350565929796,
        0.062101049399282016,
        0.02666036732110328,
        0.011643246972280905,
        0.017428582062654015,
        0.021252716625227073,
        0.029622758497392904,
        0.008771176511120651,
        0.0030769861915501736,
        -0.000964497430254198,
        -0.010262803655956476,
        -0.02017240815447134,
        -0.02421554931565969,
        -0.004242044785089562,
        0.01355791157304736,
        0.004840029425342086,
        -0.002690690635172039,
        0.013806479773156069,
        0.01175455298919606,
        0.008321178721023273,
        0.004363481608022797,
        -0.023369902079950516,
        0.006910868555918502,
        0.0009604182919558684,
        -0.04242366408145218,
        -0.06834974541953277,
        -0.024323959864245973,
        0.02212765562991108,
        0.014385370549463594,
        0.009176145851840187,
        -0.014380476533250664,
        -0.013426461904222906,
        0.02128552617070012,
        -0.003567365832119811,
        0.012515522207329136,
        0.005345499191225142,
        -0.052834119009304854,
        0.0038346030731676345,
        -0.02903200645563775,
        -0.03810842449542833,
        -0.02284683388866343,
        -0.03722381555650337,
        -0.011819801348601468,
        -0.007278615010557915,
        -0.028423389347082433,
        -0.012526248633365458,
        0.0006701435111440472,
        -0.0019716866795887146,
        0.04680315555886691,
        0.07630522348430988,
        0.05840540746369402,
        0.04343266941348303,
        0.030976369279181442,
        0.02162234071121117,
        0.04241813693587528,
        0.04345721516230735,
        0.038100073775339506,
        0.007485476745802072,
        0.013740630938198715,
        0.013873817434044361,
        0.007167017050375428,
        -0.0034642514821948737,
        -0.017460945417176854,
        -0.014149058731956762,
        -0.009364562006752297,
        0.0006055652749796115,
        0.012861866022741286,
        0.003570232962834673,
        -0.009288399184677458,
        -0.004113705779800228,
        0.02563521007789917,
        -0.01843670444938481,
        -0.04823069690803652,
        -0.08408925847928087,
        -0.041223051226444006,
        0.03858788184854863,
        0.02791710973284148,
        -0.015589653461354795,
        -0.014810839080625396,
        -0.03222181098613501,
        -0.0063058527566395945,
        -0.025969519992863486,
        -0.0039011679538064285,
        -0.01329762783336088,
        -0.0313821895961341,
        0.006615606864756619,
        -0.012984554257859368,
        -0.037148549327628615,
        -0.05006083874415708,
        -0.031977146753191375,
        -0.0033532799271771526,
        0.008115519805260861,
        -0.029168294921936712,
        -0.010317334900442223,
        -0.022224563336616796,
        -0.0007250208079144791,
        0.028152250535936084,
        0.03551281248238967,
        0.021380332758490814,
        0.02373739622476927,
        0.056912055472496156,
        0.043519178030127906,
        0.05229222953099156,
        0.037258376345769686,
        0.021951440024451426,
        0.024472828325554134,
        0.009871506517350212,
        -0.01263186440659193,
        0.0007987799908958265,
        0.0028481060034281597,
        0.007212280310379401,
        -0.006585525882755988,
        -0.013689204818674652,
        -0.017526763943485454,
        -0.013496202306089352,
        -0.03589932420669273,
        -0.03765394455853251,
        -0.0182537390752866,
        -0.0028567734422946236,
        -0.01744982524880269,
        -0.02752195374624606,
        -0.056496026190880136,
        -0.003670694242254473,
        0.054337856691261954,
        0.013488401399665003,
        -0.006159411855254147,
        -0.04573041209545772,
        -0.06886368162468337,
        -0.03602573801343761,
        -0.041775008156472435,
        -0.008889009064220948,
        -0.007538841088713107,
        0.006585173580409363,
        0.020308056473131858,
        -0.010512530415630935,
        0.009520982811185427,
        0.03065165052228865,
        0.04840031724913057,
        0.018583751542084064,
        0.019936148930429946,
        0.029944049597468513,
        0.016316881485465923,
        0.027400936702311137,
        0.06654963639739263,
        0.06898113085158897,
        0.028640614284150344,
        -0.012893545647135986,
        -0.0034306878359820275,
        0.03563938952126046,
        0.03311784780477015,
        0.020144352701735865,
        -0.006482228553290865,
        -0.014275073480382523,
        0.010013534568303506,
        -0.00394584126094465,
        -0.02223525289768086,
        -0.028861929498223214,
        0.004398844986630842,
        0.014723102429024894,
        0.02379322825678616,
        0.0014106995119313312,
        -0.005931489332597103,
        -0.01970029670902287,
        -0.03019794362993352,
        -0.03493890301866731,
        -0.03735419369817629,
        0.0013627406027609222,
        -0.016216346995249046,
        -0.022852723227519255,
        -0.009291818196783085,
        0.012784187088393476,
        0.03343850756165475,
        0.009500527467916265,
        -0.007303610868178156,
        -0.04917713580025674,
        -0.0491007231619377,
        -0.010436043848812424,
        -0.015535868509374594,
        -0.026494248397011887,
        -0.031095993755122307,
        0.017222536274194608,
        0.023484881001502332,
        -0.01472904915639071,
        0.01927398361939876,
        0.02550737464535548,
        0.04710696330826939,
        -0.0034053644768422737,
        -0.03991416525245655,
        -0.024674940903045967,
        -0.04825059525500929,
        -0.023381279640369658,
        0.01753823272739891,
        0.028844336819248938,
        0.016814885016621203,
        0.006378719436914558,
        0.023279650197416794,
        0.01997331022052688,
        -0.02171802855600543,
        -0.019071650530197923,
        -0.005199985204426873,
        -0.014253036108997265,
        -0.010241675059204322,
        -0.0238915722206062,
        0.0015169996992313189,
        0.017655473279532347,
        0.041006095458018206,
        0.010911581630240334,
        0.030595457253717376,
        -0.0010553613893018589,
        0.00163692784743846,
        -0.010407415154304763,
        0.005077075562341515,
        -0.012170679848072307,
        -0.0323423932099768,
        0.02258994294247163,
        -0.016763646958499655,
        -0.033413079214854105,
        0.011870058250403622,
        0.0060498744477357706,
        -0.03589487556042947,
        -0.028913587474180238,
        -0.013381171255848541,
        -0.07454365659501437,
        -0.0320798119950746,
        0.031796798415255,
        -0.006348080521444987,
        -0.06104194976442771,
        -0.06256165192983199,
        9.673375600430397e-06,
        0.005186534464365868,
        -0.005527932531806006,
        0.00039619967656264756,
        -0.01938385826163178,
        0.013479376899873828,
        0.03694105737897428,
        0.022404703213155464,
        0.006615240892458266,
        -0.03754219038135449,
        -0.04056265875256497,
        0.0002200925551664236,
        0.008752469410650951,
        0.019615820458386234,
        0.037970408483525175,
        0.04247362391117037,
        0.015913466500109233,
        -0.011482361076342986,
        -0.01613522017462305,
        0.014259501421061886,
        0.022648470027733028,
        0.034960916314640225,
        0.030236786264507532,
        0.0351162225139983,
        0.028147602644025847,
        0.01674543339806475,
        -0.005276299762705472,
        0.018488479619101786,
        0.018968465482665772,
        0.028055420682729475,
        0.010434699228216687,
        -0.003199685328282375,
        -0.013920264716711215,
        -0.02846613433996322,
        -0.0005010994073566711,
        -0.01109586279990949,
        -0.027264776521846085,
        0.0029943225856101756,
        -0.002135785646621169,
        -0.04850783204782548,
        -0.04987966513087292,
        -0.02168205516657455,
        -0.0485836279819172,
        -0.017495091903510947,
        0.02083845442802575,
        -0.028569008057504786,
        -0.04894094557216899,
        -0.034049515053263674,
        -0.0014723897113743298,
        -0.01745722266385512,
        -0.004032151560341977,
        -0.029250555442863823,
        -0.019359188621032357,
        -0.005739085970943791,
        0.015701762609390272,
        0.03453276542289514,
        0.036559528814221046,
        0.005488146279104746,
        0.00982613361431515,
        0.05997666809229117,
        0.05804687778553878,
        0.06359336733991784,
        0.0945297697751075,
        0.09198301582625215,
        0.029779582822881786,
        0.025098211661366412,
        0.0077034789107073565,
        0.02672676642087911,
        0.0538347334613882,
        0.07597540667216239,
        0.08927014858814378,
        0.07147908621373196,
        0.022579998969602715,
        -0.010955061682007754,
        -0.059192015979532914,
        -0.027966686260902932,
        -0.021024844263863012,
        0.00012114880833516038,
        -0.029999703424310426,
        -0.020953843825172513,
        0.019077531645339884,
        -0.017605594630993832,
        0.0032801738730886404,
        0.007351925418601926,
        0.010523880492218108,
        0.005355542815337472,
        0.011047019264657726,
        0.0010562301332180735,
        -0.020990975561978077,
        -0.04533823694153308,
        -0.0016551206087097692,
        0.022808214940905968,
        0.02150384906683951,
        -0.03641392800032687,
        -0.009037766849907999,
        -0.03097932567478009,
        -0.05335654820868865,
        -0.034420847872404195,
        0.008254903863116126,
        0.0021633065142451892,
        0.0015332418745513836,
        -0.032868897728576076,
        -0.04296924702320338,
        -0.06184926817072157,
        -0.07598276060401839,
        -0.06541697973510488,
        -0.0447554476251695,
        0.028283983909615826,
        0.09610262673484948,
        0.11797944782879138,
        0.1262440722533615,
        0.10880220615057228,
        0.04431536747087456,
        0.00022500066299228146,
        0.014074985203679342,
        0.01358968587813986,
        0.03402253102640396,
        0.06882853685808078,
        0.10823154898564775,
        0.06906520329111332,
        0.02230514603081323,
        0.0005265842216100689,
        -0.01691479725049781,
        -0.040936250123894936,
        -0.05143322217652286,
        -0.04638955860021497,
        -0.05580555967328241,
        -0.021352697860849656,
        0.018438866409280816,
        -0.0027488912204706915,
        0.01710650464678999,
        0.033574867174446174,
        0.023603593306187158,
        0.013262465668178427,
        0.022457286046912658,
        0.021182107079936282,
        -0.010030674256776864,
        -0.04326879971826882,
        0.009744470525103521,
        0.0411460549936355,
        0.031005648849430294,
        -0.015609219853091525,
        -0.006329533073220908,
        -0.02307896707385699,
        -0.0374265912367545,
        -0.014485062141568597,
        -0.02010425392145166,
        0.025303108123248298,
        -0.006257861086495095,
        -0.07549741924137843,
        -0.07252991513129693,
        -0.061563094235066444,
        -0.09190600435745241,
        -0.10092746561104017,
        -0.06103344498885979,
        0.03650179171341406,
        0.07690705708360172,
        0.0948319717148626,
        0.0838071040576026,
        0.05337845830262983,
        0.008667170044831715,
        -0.03606038244086102,
        0.025124122120693353,
        -0.009821917974846947,
        -0.0020595384532383363,
        0.028511933106752846,
        0.09544673278161703,
        0.0734751007450694,
        0.006050057435296498,
        -0.011744597372041764,
        -0.05294355303734017,
        -0.04419698048415341,
        -0.04599978357172069,
        -0.037839296454823944,
        -0.014094903676542456,
        -0.004705802393646535,
        0.044638418826275346,
        -0.005804050336406121,
        -0.0022614226001545223,
        0.005082877619330648,
        -0.007316406270478701,
        0.012204351225085338,
        0.014493272000093165,
        0.020949194252510177,
        -0.005841527981854982,
        -0.012166140424173952,
        0.025097567422832676,
        0.03594180264295824,
        0.029629303829514564,
        -0.008863672310765291,
        -0.024855380146803746,
        -0.009037078551319395,
        -0.022663441709268234,
        -0.010906446356510566,
        -0.0026015877745225484,
        0.0354473827434243,
        0.016892355902764344,
        -0.017099621192913125,
        -0.021501119780753055,
        0.017782488103165826,
        -0.04097055359503653,
        -0.0839643402622495,
        -0.046730468682273284,
        0.07160881399144967,
        0.08451342422881777,
        0.05758785947008138,
        0.05088982978301814,
        0.011321745125055672,
        -0.017106477040274612,
        -0.02856487290318617,
        0.0049998738156703405,
        -0.0013208418081286488,
        -0.006288915363554737,
        -0.015861779416286845,
        0.02807667679881321,
        0.06460264464377757,
        0.02480292363418711,
        -0.003444967489954135,
        -0.05250175621499951,
        -0.041376915574188565,
        -0.03029915923744079,
        0.010983727198022285,
        0.02393107271226141,
        -0.002301036579448549,
        0.0333491597895609,
        0.006763334618544407,
        -0.009565040465889017,
        -0.00529101769923243,
        -0.020277622913595875,
        -0.00030139305809556905,
        -0.002803350385964992,
        0.009189831755256707,
        0.020114191465155924,
        0.023393316244498728,
        0.02109335432132186,
        0.0015715288511841722,
        -0.0063395331555984235,
        -0.017544036462252978,
        -0.023516715402843925,
        -0.004737041849611187,
        -0.031906641828682386,
        -0.02650526022704738,
        0.058444858227608636,
        0.02684682965737322,
        0.0034337901687909195,
        0.04193121797388989,
        0.04659611583997791,
        0.06251408192076878,
        -0.014292576163536321,
        -0.08932850738485873,
        -0.019065041834059104,
        0.04417928563831586,
        0.048844758979986067,
        0.023916211846311583,
        -0.003244570573273789,
        -0.05211047401030891,
        -0.06787421444553733,
        -0.03459324367186808,
        0.003304875347936164,
        -0.011541911992078059,
        -0.039625387256234275,
        -0.02978516487540864,
        0.03764216045747712,
        0.07376448810176033,
        0.02908555705648208,
        -0.011677918659646274,
        -0.019340947130315814,
        0.023259188695644355,
        0.024029648324831673,
        0.036373941318895396,
        0.029194168232085836,
        -0.004254242225906102,
        -0.02155930194021982,
        -0.05395097771739193,
        -0.006135437586899502,
        0.004003766353484839,
        -0.0024530773223896537,
        -0.021535508949010358,
        -0.03611307712595022,
        -0.006499380499860515,
        0.01656119746989305,
        0.014330465087880197,
        0.04268268367193873,
        0.0007289464491731179,
        -0.00975767636653279,
        0.004552437221335186,
        -0.005927926088473243,
        0.006452118601606006,
        -0.042475076713168254,
        -0.024950940114862586,
        0.024881492775068816,
        0.020846040962171547,
        -0.019848153660047288,
        0.00137184951281851,
        0.02291218290603574,
        0.01971946637028912,
        -0.02148921835761986,
        -0.02998367653212281,
        -0.004965609244744288,
        0.013106540347791299,
        0.025352842563370316,
        0.013604490714106863,
        -0.030833746072290228,
        -0.08207372963545653,
        -0.06549849357320539,
        -0.03935940174237434,
        -0.031657506617032344,
        -0.02320362231850382,
        -0.05641885177777407,
        -0.029157254946903594,
        0.014101291818781857,
        0.020344258577902802,
        0.02403342666408917,
        0.034043505121437265,
        0.017210365890556512,
        0.023457898356592188,
        0.04755773657444651,
        0.06554571581343863,
        0.052699941334394436,
        0.03545986056275466,
        -0.0025061390444216674,
        -0.03803188475073715,
        -0.005385079715257917,
        0.0029924359621941224,
        0.004985281245378127,
        -0.032942959116665844,
        -0.04957590387413526,
        -0.0457673699449481,
        -0.0037460226064390495,
        -0.0008064312744935556,
        0.010983455009057813,
        -0.030574626027621878,
        -0.04346860492211094,
        -0.007558484323159893,
        0.006934280480668187,
        0.012676208512031847,
        -0.03691724905339488,
        -0.01792143688011902,
        0.02681449812212259,
        0.009236972845136361,
        -0.01902235314702627,
        -0.014251026856563112,
        0.043594876688005185,
        0.05096949169346558,
        0.05218184362591364,
        0.054127117773009666,
        -0.00437954484992917,
        0.0014205377850931514,
        0.0012018011283717457,
        -0.005540499612868763,
        -0.0341858933680851,
        -0.0528732451655952,
        -0.027502274020001893,
        -0.051956178111280685,
        -0.06745924807186393,
        -0.016310672368241838,
        -0.06151079203987192,
        -0.02639819666102485,
        -0.021045214425717027,
        -0.058820032368250695,
        -0.02108445452845884,
        0.020108961256369455,
        0.0016572630441210661,
        -0.016922959007465096,
        0.00032321933824752826,
        0.021843778548828616,
        0.017767394804269945,
        0.007952491832564332,
        0.01345019735252049,
        0.008889684612118535,
        0.00942365672443465,
        -0.012938790170586708,
        -0.003629743713193317,
        -0.0013417069685770708,
        -0.035480461058688594,
        -0.057775414139444134,
        -0.024967115009296367,
        0.0006813204201483596,
        0.023630713711355007,
        -0.0315822937503077,
        -0.06442153755721818,
        -0.021052449582694376,
        0.01530031532433119,
        0.008428389885810527,
        -0.011158617525232936,
        0.015449696868609251,
        0.029766548998448068,
        -0.008581123600782925,
        -0.023741486977562627,
        -0.0019385107687549888,
        0.04250354658997194,
        0.011767485872341322,
        -0.019168734354537895,
        -0.035042107169986764,
        -0.005877791191745601,
        0.01722644208052713,
        0.014734623936700317,
        0.012911996139765878,
        0.006566460771732105,
        -0.01571573687035905,
        -0.012734078568835724,
        -0.028568852453905894,
        -0.009386232590041697,
        0.028800018050654658,
        -0.025467451529739983,
        -0.008021299077778586,
        0.0030113171315043737,
        -0.049134061265489956,
        -0.0439297000404469,
        -0.02086631913382069,
        -0.009479170678880015,
        0.013443352684773464,
        -0.004282869025378679,
        -0.013197305960033146,
        -0.012489909291741643,
        -0.03347010852398013,
        -0.014295588760779387,
        0.008848376302742463,
        0.005737074504332214,
        -0.01430483357152992,
        0.008167104862328507,
        -0.0041538583387699226,
        -0.01745944885775295,
        -0.05305019486002151,
        -0.025320960582196874,
        -0.01975913644842076,
        0.015479575236246138,
        -0.026583652374686993,
        -0.06366982757671932,
        -0.02587959466312487,
        0.038214624366525694,
        -0.0037233517821037548,
        -0.012587709703324233,
        0.02455062635105475,
        0.04580423376870702,
        0.03561283162286077,
        -0.008095100174305113,
        0.009294754429865376,
        0.011479260618681254,
        -0.016627112549682552,
        -0.03970412007931874,
        -0.020656868830748118,
        0.0007883699886913532,
        0.03607970507898467,
        0.016142463754062367,
        0.00779000752603977,
        0.005463823426602764,
        0.016882498003330023,
        0.03275909550233908,
        0.015250986058409237,
        0.02418584690337506,
        0.054966735056388265,
        0.002037945258876676,
        -0.025630959608343332,
        0.0123703319431509,
        -0.004157080642056098,
        -0.005836942957524011,
        0.007809441682592526,
        0.011824891457381713,
        0.019592825657010985,
        -0.015157673583461265,
        -0.01569621335950919,
        0.00811240927327801,
        -0.006980019137697453,
        0.002027236155471986,
        0.025341082393288958,
        0.009918032573421422,
        -0.02000193839623802,
        0.00820675507023527,
        -0.016870824579392037,
        -0.0028387466013346397,
        -0.0445575224720848,
        -0.008019108180893892,
        -0.03126289784439664,
        0.05733912220363932,
        0.014898829473199985,
        -0.04521933968023822,
        -0.006032949940617727,
        0.015660057028211914,
        -0.01275696121635133,
        0.003356744364833906,
        0.007694291054159128,
        0.04860501085415861,
        0.03532248726972314,
        0.02713031250963331,
        0.002864975802042426,
        0.010940640847546068,
        0.019383840225142113,
        0.03343003569561063,
        0.0067579266216957305,
        0.013346737600767987,
        0.0033684264019400514,
        0.02254248121784303,
        0.03737921249690196,
        0.028683473465815273,
        0.03082284098496236,
        0.03716653769027881,
        0.030038672283122066,
        0.02848450655435941,
        0.041263909172125315,
        0.017877497087508284,
        -0.0003152997399198335,
        0.009708871912199834,
        -0.011135197119899931,
        -0.010587455790063665,
        0.006388649132890168,
        0.0347334783881732,
        0.0504103008377511,
        0.04502433808823167,
        0.023254408101509444,
        0.020398765818738424,
        0.03878039922858489,
        0.027297824407283393,
        0.03818087201755277,
        0.02871646488261765,
        -0.012965445513245204,
        -0.003406277038344516,
        -0.024095090325407187,
        -0.009559441068068029,
        -0.03267207419342907,
        0.0035352101091702635,
        0.013923173992517532,
        0.03894419444761099,
        0.027032568365348255,
        0.00839030363440427,
        0.020912009175263292,
        0.021011644483314128,
        -0.020523380045850876,
        0.007261033040155174,
        0.022179662578503807,
        0.05758044795137181,
        0.051184282978443976,
        0.034774122848055554,
        0.03615827963757352,
        0.052827726056143,
        0.07088663751006677,
        0.028079854138977765,
        -0.006092720436332112,
        -0.012714025246237479,
        0.03558001883849387,
        0.06020562033776856,
        0.06413165299589767,
        0.02488620549463686,
        -0.006259325229570088,
        -0.012653711658410472,
        -0.0064810010958265725,
        0.025405823015200408,
        0.058758864699203744,
        0.058950214967381405,
        0.03248546980441528,
        0.04165414772321521,
        0.04637115167275556,
        0.03076510951038551,
        0.0325010692903966,
        0.03199987091284376,
        0.03427883953689605,
        0.05628993239171811,
        0.04285087615980829,
        0.032836560208500634,
        0.051090123632690373,
        0.028826509926657435,
        0.036169710725687726,
        0.029720047581303147,
        0.017702933904144354,
        -0.0022571718296301936,
        -0.005737485803595288,
        0.016410979896563052,
        -0.019637037944187245,
        0.017873643429372213,
        0.03887358521783692,
        0.014174951433579263,
        0.015867881687141993,
        0.01654033293295819,
        0.01483250652702948,
        -0.018553793237062414,
        -0.02462888871391175,
        0.012882163836987372,
        0.017790185490772895,
        0.06853207311229893,
        0.04681490988127486,
        0.05967369615954751,
        0.09265677873351393,
        0.10563620242109108,
        0.08891022306576206,
        0.019824388343976686,
        -0.025673007771275205,
        -0.03340151037644481,
        0.01264386407050943,
        0.033165052060341746,
        0.033824739027034194,
        -0.01737217731051261,
        -0.04145357973599415,
        -0.02805603382226094,
        -0.011770240537352742,
        -0.03703442518340836,
        0.013967087652224435,
        0.04518338006631203,
        0.04430369581726622,
        0.04895262498391726,
        0.030613483901021737,
        0.004067402304640252,
        0.012165388375566785,
        0.045163272440518196,
        0.034635241375834486,
        0.061874913741021886,
        0.04872565195947452,
        0.04939813953818494,
        0.07056103905328208,
        0.05056705316016591,
        0.06392878792664526,
        0.03821046633243303,
        0.062037941640889105,
        0.025428611787276015,
        0.011279445541544695,
        0.02624786586928254,
        -0.0031146977574901032,
        0.025300401302718566,
        0.029940022485886494,
        0.011730167575065805,
        0.0036079267778613726,
        -0.00832745441198487,
        0.010240491565533798,
        -0.026347884069799467,
        -0.018306566256015358,
        0.025162609192642776,
        0.04213322166557664,
        0.06292782903056465,
        0.02668575183052139,
        0.05689718430120392,
        0.06465339190422753,
        0.07574946449495831,
        0.06432235781850598,
        0.0009005471747421836,
        -0.04475423305473208,
        -0.05647873740225571,
        -0.005113456622063571,
        0.006936001249784751,
        0.03116141998123159,
        0.014244181531046472,
        -0.016899762241078822,
        -0.004803910652490121,
        -0.024409391358624584,
        -0.060178805431418785,
        -0.010349280774588604,
        0.014407848248170856,
        0.01476856320801713,
        0.02749838195169127,
        0.022622281797335133,
        -0.02612410030386568,
        -0.03223667132248502,
        -0.006091856943943747,
        0.0028079980863177584,
        0.040087565289173566,
        0.04172866951162948,
        0.03628038213694676,
        0.042707386742493365,
        0.03600781165384363,
        0.029728392515183746,
        -0.0012423582794817035,
        0.044894310521646795,
        0.043648877871871376,
        0.032390938588955684,
        0.03715850425318794,
        0.026375192164665214,
        0.04514077274789643,
        0.023213505614403877,
        0.012270981126701554,
        0.018220313364587053,
        -0.014914323066212886,
        0.0086103454608082,
        -0.011407791173271687,
        -0.020839894603693006,
        0.011318441131239353,
        0.04683382766495453,
        0.031889686252744125,
        0.01597621977980125,
        0.05134546015106565,
        0.05142335882552554,
        0.0736459350028562,
        0.0340166277542174,
        -0.042433913857440574,
        -0.07647969469668311,
        -0.10358463088412471,
        -0.036565562723705224,
        0.022864254757627305,
        0.054708996761968214,
        0.039519655154197676,
        0.007403882194723323,
        -0.0015396931848927061,
        -0.0350909645241018,
        -0.03637424054092312,
        -0.010111034729275957,
        -0.011040970978228802,
        -0.033132827342562676,
        -0.00972742830443207,
        0.028236579469775296,
        -0.008063290244390934,
        -0.05889974288536823,
        -0.08312821718608798,
        -0.03773604740930251,
        0.004448250572526982,
        0.02367763324926768,
        0.033590295868509805,
        0.023174997929263256,
        0.028609817053685524,
        0.02762130869175809,
        -0.011108226112454243,
        0.002177744427716108,
        0.028381314845558708,
        0.02585700811758368,
        0.009289944795693186,
        0.023672365766103112,
        0.03633262717209323,
        0.013871433024071612,
        -0.013376563620181001,
        -0.0035278812829621694,
        -0.03202310476213032,
        -0.01730378974491509,
        -0.010659645115079445,
        -0.022645069535427033,
        -0.008667189032428087,
        0.013953688786537145,
        -0.00934100689890397,
        -0.01330622391624025,
        0.0398329002638915,
        0.05062508858997527,
        0.06409574192054616,
        0.010598246829981187,
        -0.06019110466094625,
        -0.10058542009589723,
        -0.1171573391032185,
        -0.0678316625796838,
        0.02356452342211917,
        0.06454250393613117,
        0.02053481750340511,
        0.010445626973162063,
        0.008413707929292073,
        -0.03128247023554923,
        -0.06583812765330731,
        -0.029428630371625367,
        -0.024864024490055283,
        -0.030908324358516738,
        -0.010563001565765772,
        0.017776390580952744,
        0.02232339780359968,
        -0.04089240050293558,
        -0.0989063241416263,
        -0.0637555685994975,
        -0.026655436598722222,
        -0.006428410214328219,
        0.021394140631110035,
        0.028579626174513074,
        0.036554919584185774,
        0.029162884682464182,
        0.013695712704594215,
        -0.021978355668631225,
        -0.02059681257386927,
        -0.005414457300964845,
        -0.018858022993601488,
        -0.005016380883032505,
        0.011568010350900111,
        0.009047276489652131,
        -0.03747092010848389,
        -0.013839572430802414,
        -0.006085672708200416,
        -0.004061866547804191,
        -0.004367120133230015,
        -0.014901350856341122,
        -0.01688012170618786,
        0.006777822902080839,
        -0.007541910054576854,
        -0.015108257268315727,
        0.0002855306983611212,
        0.0029510831123605646,
        0.003020962992581256,
        -0.029894237373271754,
        -0.06583621371224693,
        -0.10049658510686024,
        -0.11640892783030604,
        -0.08714237162384537,
        -0.02309421052463624,
        0.02330976471194482,
        -0.006284167427811348,
        -0.005702502194168723,
        -0.0008493599378844128,
        -0.0362564208063243,
        -0.08093446125401092,
        -0.056922122304336506,
        -0.048799814803843614,
        -0.045392727873277874,
        -0.03556394459488261,
        -0.043992192647309594,
        -0.019110261934593035,
        -0.03498442273205202,
        -0.09634438859580438,
        -0.10144847299692092,
        -0.0693857530060211,
        -0.037313398778535734,
        -0.03382804766554425,
        -0.024757682522566025,
        -0.002909956007361743,
        0.0005570822373221765,
        -0.0057715915854264,
        -0.02757759576070395,
        -0.001176046644046835,
        -0.002868082528691783,
        -0.017119622878545005,
        -0.01670755235697214,
        -0.008326668594546328,
        0.0009258761990661904,
        -0.042439062166399276,
        -0.03284892650986997,
        -0.0060956794876815944,
        -0.002143930428704719,
        0.014816840498834385,
        -0.006031410745061916,
        -0.0246954674332265,
        0.03452772226420056,
        0.002490024688655973,
        0.00466698550248705,
        -0.03446742768246395,
        -0.05767400597562723,
        -0.04615811019646626,
        -0.0845927515607707,
        -0.06240764070481688,
        -0.07141775818656006,
        -0.10599921644784467,
        -0.10606583657452831,
        -0.04835242786835529,
        -0.007047802389909834,
        -0.010403944962255263,
        -0.014977883425746573,
        -0.030595912564564346,
        -0.061899209653157206,
        -0.07427546606447498,
        -0.030889660686219823,
        -0.032953241896077984,
        -0.06404339911119089,
        -0.05216474907381919,
        -0.07788755852901352,
        -0.09347091984292179,
        -0.05836813519066315,
        -0.12053244314705455,
        -0.11409356779950476,
        -0.08183862230957722,
        -0.04669836602305117,
        -0.03915979225378499,
        -0.06263730294600484,
        -0.04546160244092522,
        -0.027999214662486636,
        -0.044327063853530774,
        -0.05369863191168146,
        -0.0024748679347859712,
        -0.00803326736944463,
        -0.009928284049994256,
        -0.028925931383679403,
        -0.01376567844746249,
        0.004886995375426803,
        -0.0314318036248759,
        -0.0533190836219609,
        -0.05668284845532417,
        -0.023426569558740125,
        0.006030675350941972,
        0.03516135990711719,
        -0.004032156377145049,
        0.01205613301373231,
        0.010461141663086202,
        0.005148192673718237,
        -0.02249726101960841,
        -0.06399064903941366,
        -0.07389464533231514,
        -0.08204178827496116,
        -0.0801928180332113,
        -0.06300452952892605,
        -0.09113751426161916,
        -0.06632522249699443,
        -0.05426099395982718,
        -0.026370418464192528,
        -0.0033359042853381765,
        -0.013585671250361891,
        -0.013039512942902164,
        -0.013366822288266432,
        -0.03243738136136527,
        -0.028373901712607667,
        -0.03189493121780207,
        -0.033442684080007015,
        -0.048785815635338146,
        -0.0835910612948841,
        -0.09301507498430195,
        -0.10160419077584622,
        -0.12261481151530658,
        -0.14318534086057494,
        -0.11505634066279632,
        -0.08564383359234001,
        -0.0518885451677046,
        -0.05978490881537944,
        -0.07087066522886232,
        -0.03379882943342466,
        -0.059644174083427724,
        -0.04008951469259515,
        -0.03077434419700336,
        -0.012365476025149511,
        0.0008232945458396876,
        -0.027858049988863775,
        0.009081117858613357,
        0.01835426047078124,
        -0.0345349693737361,
        0.0073223765181629,
        0.0018399557649956414,
        -0.01936901815768343,
        -0.0028975870073235117,
        0.03854697414921125,
        0.00577515282918512,
        0.020399592354264546,
        0.004445013743761769,
        0.010164368198400768,
        -0.02181678651713365,
        -0.0473066592648045,
        -0.06440112515774013,
        -0.11409193651365473,
        -0.11484155330006002,
        -0.0995575357098608,
        -0.09090836737124856,
        -0.09402702043630341,
        -0.06913316480454619,
        -0.03661994989530383,
        0.0033724684588288057,
        -0.0012825910452384421,
        -0.009956822212826184,
        -0.021661445090068975,
        0.026482789396525444,
        0.016666398809350395,
        -0.005607661158369736,
        -0.01018500381332872,
        -0.012646145370298645,
        -0.04940494951661294,
        -0.11191487903754023,
        -0.10749481183009776,
        -0.1424407123331009,
        -0.16163684958728114,
        -0.12754656610758552,
        -0.10008643824351997,
        -0.05303238368975968,
        -0.030034956758584315,
        -0.04156392254714154,
        -0.036520067368672235,
        -0.05729970647870886,
        -0.020098929552777214,
        -0.0032541842100920195,
        0.001248932496271345,
        -0.007628967000158016,
        -0.021143348371873486,
        0.008638785572837196,
        0.023968663742137877,
        -0.01774401755108215,
        0.03720667386530095,
        0.013513333828586847,
        -0.043269591483337484,
        -0.01679033784758023,
        0.03575320901338317,
        0.006351954906087113,
        -0.0013811436352082682,
        -0.01075900660102782,
        0.003605416822358638,
        -0.01898736088078091,
        -0.02416451719092263,
        -0.04448943361470876,
        -0.09841789367300423,
        -0.14841791596629958,
        -0.1605294876464254,
        -0.15844235372873458,
        -0.18957022553217318,
        -0.1274934698564426,
        -0.05984553150663243,
        -0.055369991794083334,
        -0.05398963815866841,
        -0.01768066085679974,
        -0.013918474885025412,
        -0.008094748362954388,
        -0.002552420748520993,
        0.013071956669836607,
        0.023634423351045857,
        0.051029368728521395,
        0.00841594304550225,
        -0.09485606370085653,
        -0.10093456774331941,
        -0.1482887583597474,
        -0.16278250273230502,
        -0.11196942473334966,
        -0.09476281509395335,
        -0.02883867667507302,
        -0.014191952100424537,
        -0.011810024438254386,
        -0.015607655527425246,
        -0.046878401672157476,
        0.01570109041654782,
        0.017662807802418592,
        0.002077403805566224,
        -0.02382720313708893,
        0.002581079905494916,
        0.012210433520113017,
        0.04031599056220703,
        -0.012931052563090295,
        0.010650099042129683,
        0.009377713537038226,
        -0.03554671744553383,
        -0.011613723571631838,
        0.02887752858627124,
        0.0049368783060142595,
        -0.021548095567990457,
        -0.01144561736190942,
        0.015666241788522887,
        -0.01067007823092953,
        -0.04326455141799544,
        -0.05302641339049208,
        -0.056590001480074856,
        -0.093665285046119,
        -0.12942574118758904,
        -0.16084266464087565,
        -0.14864622128807117,
        -0.08686154898911179,
        -0.031058628376046008,
        0.011636241361263731,
        0.002523243355044555,
        -0.015217517961630041,
        -0.007104795378917297,
        0.0286684723973915,
        0.023300530201236017,
        0.026738450702209184,
        -0.016865551826661315,
        -0.01162318117078565,
        -0.05451724201211552,
        -0.10357973784781642,
        -0.09804782653578982,
        -0.1459879941797888,
        -0.12213135772542673,
        -0.07026022742265417,
        -0.05297194612966683,
        -0.023472827139930767,
        -0.026195778772784097,
        0.005502604094935029,
        0.02354197069548453,
        -0.008310003085260143,
        0.03505521554166813,
        0.007302405626869841,
        0.0010370842107581364,
        -0.01953588326754379,
        -0.007901248177148797,
        0.01945256739796138,
        0.03301602732316215,
        -0.03465652392940909,
        -0.01634846123705124,
        0.014549400038663883,
        -0.025172809075058335,
        -0.007525861223843804,
        0.027335363450970197,
        0.015344363664697769,
        -0.0023233694831481075,
        0.008343450591476405,
        0.025420923556873035,
        0.01449505968726929,
        -0.023283250143034576,
        -0.03469632773652276,
        -0.024996494760275944,
        -0.024874482894497743,
        -0.03257032337187389,
        -0.05886359265940742,
        -0.07966378196536912,
        -0.05501867475123689,
        -0.039255256559236146,
        0.034930992925074233,
        0.04689024049747493,
        0.04878532796867614,
        0.08394563138424779,
        0.07892114922671187,
        0.03863495733827789,
        0.03855825414440597,
        0.012194572760704854,
        0.011449622750856724,
        -0.035394196040459854,
        -0.07736402545041314,
        -0.08039105215204342,
        -0.08305322797845632,
        -0.02917547706390435,
        -0.030042584443943476,
        -0.03993949219280304,
        -0.019416172725092946,
        -0.024162500221688567,
        -0.007987654063281524,
        -0.011317682906351066,
        0.01732422346300958,
        0.026451916892708087,
        0.005349132119656168,
        0.01492923989417173,
        -0.002818564577001975,
        -0.04041245159332921,
        -0.02092839974808567,
        -0.006384345074929219,
        0.010259171505771625,
        0.017573026299801613,
        0.000457878020516306,
        -0.021106649854927575,
        -0.011138515347862372,
        0.021242270750702057,
        0.023988100527881823,
        0.01292472911396038,
        -0.010409208196554842,
        0.003944134419683216,
        0.0323285391673169,
        0.017051104810736146,
        0.020818363410042905,
        0.013164770799265754,
        0.011720187281554743,
        0.028034289023343147,
        0.011083586125650045,
        -0.011985059224109154,
        -0.006540619949061089,
        -0.00892489777138808,
        0.058756734019822496,
        0.04287146188142836,
        0.052976383289451784,
        0.11140278211581231,
        0.12271529778142375,
        0.07652505214766954,
        0.10237753720186002,
        0.09015377284654004,
        0.034211821335034386,
        -0.010387131804625103,
        -0.020020882672693127,
        -0.018179907552988,
        0.004493269497735254,
        0.02827394046119217,
        -0.008805748981778706,
        -0.03258772666428251,
        0.002038784742918584,
        0.026987867360096254,
        0.012849248330046956,
        -0.01875663091591825,
        0.024248340751096168,
        0.040609894592066355,
        0.043869832697603604,
        0.05752945145541281,
        0.013323812725893409,
        -0.04796549685917763,
        -0.023966818952339423,
        0.01989214056485689,
        0.04835058751260761,
        0.03252710526456327,
        -0.015436717456237033,
        -0.017498199260268844,
        -0.010629921725800703,
        0.003937244237557535,
        0.034378607506578104,
        0.023157411907352154,
        -0.010368532162397262,
        0.0018615435619690071,
        0.034406086485557645,
        0.027124576675595955,
        0.048802513966684245,
        0.07988487063622988,
        0.0377784668388937,
        0.016487455216452392,
        0.036615754086095194,
        0.03354203571765312,
        0.03278355337901736,
        0.052787160780982154,
        0.09053262375929147,
        0.08817897568681379,
        0.10741115125083658,
        0.1558972061162611,
        0.1530072121297519,
        0.148069522842216,
        0.16739318459803487,
        0.1275860667485047,
        0.06399335265589039,
        0.0409848954536271,
        0.032896269207553834,
        0.031561612400153344,
        0.043619399269353945,
        0.04712382391751427,
        0.01857784952062751,
        -0.012351652940977812,
        0.006239151130926224,
        0.003262038649986411,
        0.008152400772526457,
        0.019191074904678706,
        0.03211405795231191,
        0.04704963682705343,
        0.05203744489796591,
        0.06398870494034643,
        0.0012890107236633486,
        -0.026962572552852827,
        0.00750773403208267,
        0.018058911913022783,
        0.0356397244783013,
        0.03060217373717003,
        0.0030465593338312334,
        -0.041973982273935305,
        -0.01911189537508813,
        -0.013851598779143723,
        0.004521768891964043,
        0.023204699730892217,
        -0.016248275551869865,
        -0.0068138040722385326,
        -0.006433751213674486,
        -0.0006795146298309437,
        0.000996628753793005,
        0.05650198999599538,
        0.0702900239618163,
        0.01999640179488093,
        0.037986959696250294,
        0.060446481888023686,
        0.060332475141159615,
        0.05107960916331212,
        0.051765830541358616,
        0.10267607331470649,
        0.1125178299448904,
        0.0896980162497992,
        0.11879811621855454,
        0.11391706211709297,
        0.08263166857073793,
        0.055836132563500875,
        0.05608411690992998,
        0.08568577004196422,
        0.08452018058731241,
        0.07662959013166559,
        0.08315851503750735,
        0.06966498979111516,
        0.026166300910874313,
        -0.001112414974859956,
        0.01402353506102209,
        -0.0524020632555914,
        -0.01718424954780396,
        0.00033248225997431686,
        0.009843517596695831,
        0.03682756786441926,
        0.04446713034540906,
        0.04922993138195485,
        -0.00623613004223734,
        -0.012547111893177833,
        0.010107469202490378,
        0.035818499048544984,
        0.0284675643584688,
        0.030678808389158953,
        0.010811051095598108,
        -0.009339309735479919,
        0.009563342184194969,
        0.007784633718843606,
        -0.007562925096841355,
        0.01885553622667169,
        0.012256799907540692,
        -0.007698066240273334,
        -0.0041767733540023135,
        -0.015187893895637978,
        0.019434655656081025,
        0.05208333196906788,
        0.08683601259400794,
        0.08287962024540188,
        0.039052576075435566,
        0.05896477179323516,
        0.08138148720296903,
        0.10676716843111508,
        0.07611853306490736,
        0.04715260078275723,
        0.02510370326999777,
        0.06654785023282205,
        0.07475795209558715,
        0.07643143693018781,
        0.05770110561070542,
        0.0439748265641504,
        0.05063835199947331,
        0.06039522891409626,
        0.06419990692931206,
        0.05209223555640721,
        0.03491141024584996,
        0.05096722473746332,
        0.018939747008937934,
        0.029853097854961045,
        0.027191775684548444,
        -0.04379916494871655,
        -0.045915223251972344,
        0.02278771656395019,
        0.009692794956429447,
        -9.738509225976273e-05,
        0.03580188778848718,
        0.023692575753188973,
        0.0052065754611337,
        -0.01884525795712262,
        -0.002079812946209245,
        0.04506341410600781,
        -0.006521333168567206,
        0.00585029317738183,
        0.0032378543473308534,
        -0.020721145337250488,
        -0.01549653953509845,
        0.025321115863334763,
        0.0027597552812069263,
        0.0331589077112223,
        -0.020012917024676554,
        -0.053302719707139845,
        -0.023755180438831465,
        -0.006082257412948088,
        0.06416579872410368,
        0.03203988805221587,
        0.05540092612769402,
        0.09863676052475041,
        0.06716690883610742,
        0.0483338607553677,
        0.04225079624907729,
        0.062330988814649636,
        0.05429062055879894,
        0.028133650404983175,
        0.032699814738193875,
        0.03631637924666807,
        0.047288565158191895,
        0.044232177127757975,
        0.04175754783372863,
        0.035010757987448494,
        0.06508396546151962,
        0.08139848425129638,
        0.04447862755013759,
        0.030079922580492444,
        0.034047001637541534,
        0.028151553882955607,
        0.032458441073938735,
        0.05420438601814915,
        0.031219806784823015,
        -0.035717532055783666,
        -0.03577650783842953,
        0.01534436340131614,
        0.020917155068949783,
        0.0014771941554916467,
        0.01789977293995889,
        0.00032527809186540994,
        0.013042629784238821,
        -0.02327002357414301,
        -0.03452308594530659,
        0.007036346939002242,
        0.014783397415652925,
        0.022292939034398038,
        -0.007988620375554195,
        -0.03625621563601489,
        -0.022224264333036557,
        0.0060696881581607165,
        0.011882304271767005,
        0.03765237094349748,
        0.019813416410524875,
        -0.019347901277634305,
        -0.016648704106771946,
        0.002249786066162294,
        0.04039955565518732,
        0.03671299945090327,
        0.05351033968353005,
        0.08476471729527953,
        0.0684485029271991,
        0.0389449600780055,
        0.04498189820851952,
        0.0463984999774879,
        0.03334320757384853,
        0.01468982020863401,
        0.024643604500265374,
        0.0401531347511607,
        0.05159574927150743,
        0.03299995525069726,
        0.02150103357700837,
        0.040700920199249424,
        0.07377304119288959,
        0.08179878599182319,
        0.04013343241712882,
        0.008090388434520184,
        0.025876714579433323,
        0.03705422932500029,
        0.025202125819914392,
        0.04389512130258151,
        0.015500291084226929,
        -0.0210577735011459,
        -0.01827448493311392,
        -0.00996589425572542,
        -0.03476931925987282,
        -0.03673248014257484,
        0.01961557691462523,
        -0.012760590718685705,
        -0.0010130679345528167,
        -0.007089219244258279,
        -0.024163615931056454,
        -0.019705407921502403,
        0.0395377931580188,
        0.03947548082082019,
        -0.020248250344188035,
        -0.03250423201026052,
        0.006875095136045613,
        -0.030902967114335964,
        -0.014742962241017432,
        0.05611228705602225,
        0.036835407354780775,
        0.0029043976614213556,
        0.00696547927924635,
        0.005470959603460375,
        -0.003417576628576193,
        0.0386036429677754,
        0.03382601686470231,
        0.01952242089672293,
        0.017318661385083166,
        -0.0015400798450965164,
        0.012243490235388494,
        -0.002163467105774589,
        0.0005576175375395758,
        0.01320892213646967,
        0.029201706198068115,
        0.046660509547178354,
        0.0784107586999886,
        0.0642415523480821,
        0.021149699074650485,
        0.02308843268657887,
        0.051146298268051435,
        0.06579391243212207,
        0.02848755549491518,
        0.0068651858399604165,
        -0.005319622522328092,
        0.04315772666150436,
        0.028460422924817284,
        0.032045400592734204,
        0.006067458415018094,
        0.0006260670706923219,
        -0.022165757355271088,
        -0.0360598394081874,
        -0.07410082307628298,
        -0.04233177345135944,
        -0.010099729473983162,
        -0.03497002550927357,
        0.011453852888313952,
        0.014335445345226539,
        0.0012190634519600133,
        -0.008977357874775826,
        0.06378916670633403,
        0.03514319746920384,
        0.004008738687199242,
        0.021326188182051727,
        0.05837090704652996,
        -0.007352743213523028,
        -0.03626959929191908,
        0.01794133823924721,
        0.029351421046186908,
        -0.0029332963424676915,
        -0.002235522099330931,
        0.002754212642368004,
        -0.04035217285087874,
        -0.007796994060981475,
        0.02243222850638592,
        0.03203225942816214,
        0.02155439725142829,
        -0.00754294608257916,
        0.011274286630487667,
        0.014324398613399347,
        0.02452785035447169,
        0.037668208512680545,
        0.03072194925618448,
        0.027694243137704577,
        0.04570519049063848,
        0.019140786534675183,
        0.0011717001916263883,
        0.012370366771463876,
        0.02490751756918219,
        0.023013193516304598,
        -0.014960886857419921,
        -0.0021624817075053134,
        0.012056652623340082,
        0.01679974353296631,
        0.019663287001662068,
        0.03052836149261331,
        -0.0008583725813584073,
        -0.027616296243171107,
        -0.06826141010739509,
        -0.07043738837776409,
        -0.040361557676636906,
        0.018800587347143453,
        0.025694148965615837,
        -0.0020739897976077733,
        0.02030348116284051,
        -0.005240320232687183,
        0.006569442897741563,
        0.03177146576549504,
        0.0612583197679454,
        0.02331078528405098,
        0.011281800192098153,
        0.042380965245135065,
        0.045336021647352655,
        0.004523422313865999,
        -0.022925108228048784,
        -0.03676743161399152,
        -0.013352886310701065,
        -0.009523337267741181,
        -0.0034274562554248763,
        0.010391003505815103,
        -0.018882874860075585,
        -0.03396214947961357,
        0.006190830254246823,
        0.02010206708621706,
        0.02068766305319843,
        -0.011305538621618198,
        0.00843642378370162,
        0.008102307785572969,
        0.011548281960954063,
        0.043215096666532476,
        0.0747013212887996,
        0.0710572778142826,
        0.036832007074970044,
        0.007444991970213517,
        -0.004169266745176333,
        0.013693878358412539,
        0.02221594941741365,
        0.013435868851040068,
        -0.002100984956793986,
        0.020859239255830643,
        0.022162984192962004,
        -0.027214358190467712,
        -0.0009370092719846173,
        0.031749665866039244,
        0.013237249763332385,
        -0.038888369477652736,
        -0.06796057293193579,
        -0.026209928187497622,
        0.007131930271541493,
        0.010177205428109466,
        0.024406392987844017,
        0.03545261201058864,
        0.04663904699014407,
        0.010256743551614432,
        0.0008467395150041966,
        -0.004166490544387582,
        0.039649183353778025,
        -0.0014364328660319507,
        -0.015902401644212243,
        0.01129320472978369,
        0.008123885185958381,
        -0.003634169365989573,
        -0.01761514483410398,
        0.0007529433575792756,
        -0.015017876076000589,
        -0.004004595931231063,
        -0.014852836144779976,
        -0.005371824671614219,
        -0.010578982606211861,
        -0.03869962515761879,
        -0.0037152522194326227,
        -0.024007273654624663,
        -0.026162012271482297,
        -0.0332384643225549,
        -0.031145157042764465,
        -0.009919547200752131,
        -0.01588779588931638,
        0.019305969873613004,
        0.06859053726224545,
        0.06594157715312522,
        0.03897376018452477,
        0.01538101553824862,
        -0.021855283967648725,
        -0.0020801974670693786,
        0.005061530216246854,
        0.003994192093194624,
        -0.0009956889268653377,
        0.021866649582589836,
        -0.0027825611247071632,
        -0.0009191515081599487,
        0.016722069232404227,
        0.024450203891824382,
        0.00569461366825974,
        -0.032104415654446626,
        -0.028732918989623598,
        0.002368397744140923,
        0.011654213620321758,
        -0.009833272276160591,
        -0.015734584726711482,
        0.008388986835392954,
        0.029938729980618476,
        0.018095720496814176,
        0.004197864213816726,
        -0.034520556730301764,
        0.006437576610078999,
        -0.044408012394986665,
        -0.018025356104785784,
        -0.01226713595096677,
        -0.014057785913997372,
        -0.010720569522899693,
        -0.0344851618279799,
        0.007389918299685802,
        0.015280368577235238,
        0.02337525554125118,
        -0.00756479831913664,
        -0.010176797365744625,
        -0.02179185691087366,
        -0.03027779420124895,
        -0.0036056430514263696,
        -0.02627787713105422,
        -0.02510586580976285,
        -0.004947401053787898,
        -0.02087361686908636,
        -0.0004496973287947143,
        0.04176534383015657,
        0.055062385126738944,
        0.06391198446932671,
        0.06294261188219515,
        0.07692816751044226,
        0.04685137719176061,
        0.015045032269764544,
        0.04448007931267618,
        0.024335644419343484,
        0.014706144512916004,
        -0.008104137431704772,
        -0.006440436775722756,
        -0.0048556952322376485,
        0.04800970320063048,
        0.029008745633747397,
        0.029511713054633983,
        -0.0010070653893022514,
        -0.01131403850424655,
        -0.0158012369483019,
        0.006652497052971489,
        0.01741577306313842,
        -0.012117218717049091,
        -0.0384079097502596,
        -0.016763832839383482,
        -0.00934727862728885,
        0.011177452034783403,
        -0.0014786211120795647,
        0.008326059974722515
    ]
}